<?xml version="1.0"?>
<opencv_storage>
<stage0>
  <maxWeakCount>7</maxWeakCount>
  <stageThreshold>-3.7563383579254150e-01</stageThreshold>
  <weakClassifiers>
    <_>
      <internalNodes>
        0 -1 7009 -13174 -8528390 758582829 354357035 -58724694
        -180033908 1178537887 219924107</internalNodes>
      <leafValues>
        -3.9711934328079224e-01 7.4421298503875732e-01</leafValues></_>
    <_>
      <internalNodes>
        0 -1 9628 -254881656 -208476114 819638195 2099597135 -1584622162
        -1947307636 72683215 1593936971</internalNodes>
      <leafValues>
        -4.5385280251502991e-01 5.8613121509552002e-01</leafValues></_>
    <_>
      <internalNodes>
        0 -1 7508 2128532400 -552533804 -1862139046 1065680981 285319866
        -118882175 1669972043 1567321067</internalNodes>
      <leafValues>
        -4.4468018412590027e-01 5.3774136304855347e-01</leafValues></_>
    <_>
      <internalNodes>
        0 -1 15058 -8066264 -708814568 1225000960 857457106 -1602119280
        -735800448 -1325292374 1729039823</internalNodes>
      <leafValues>
        -5.4543721675872803e-01 4.3279394507408142e-01</leafValues></_>
    <_>
      <internalNodes>
        0 -1 1641 -199906025 563446076 -1878931266 -812729833
        -1717885449 -1230927861 160016190 -526046274</internalNodes>
      <leafValues>
        -5.0054556131362915e-01 4.9392819404602051e-01</leafValues></_>
    <_>
      <internalNodes>
        0 -1 15009 -686042696 -107249645 419561944 1549287424
        -1593157529 455412747 -1974817909 1092726431</internalNodes>
      <leafValues>
        -5.4165893793106079e-01 4.5606505870819092e-01</leafValues></_>
    <_>
      <internalNodes>
        0 -1 12246 -1867263318 -640089216 -1879118853 -177229955
        -1321919051 -1593260730 827629001 -1758786225</internalNodes>
      <leafValues>
        -4.4746625423431396e-01 5.5685228109359741e-01</leafValues></_></weakClassifiers></stage0>
</opencv_storage>
