<?xml version="1.0"?>
<opencv_storage>
<stage13>
  <maxWeakCount>8</maxWeakCount>
  <stageThreshold>-8.6756783723831177e-01</stageThreshold>
  <weakClassifiers>
    <_>
      <internalNodes>
        0 -1 100 750783074 -930872062 -963149545 613454618 -1056739054
        1939870863 1342899472 338747057</internalNodes>
      <leafValues>
        -8.1549817323684692e-01 4.6150678396224976e-01</leafValues></_>
    <_>
      <internalNodes>
        0 -1 1392 1389210195 1216921705 -937279474 -2125250536
        -125762295 311066776 1758353810 1291630658</internalNodes>
      <leafValues>
        -4.6226331591606140e-01 4.0497431159019470e-01</leafValues></_>
    <_>
      <internalNodes>
        0 -1 580 -1059658907 -1600237510 1409485974 -1340833006
        1208600658 -1970648410 -493657498 -127700902</internalNodes>
      <leafValues>
        -5.1132762432098389e-01 3.2446867227554321e-01</leafValues></_>
    <_>
      <internalNodes>
        0 -1 7911 1073487775 -184779778 1476296431 183155454 -159521450
        2075621319 -538624194 -738222654</internalNodes>
      <leafValues>
        -4.3192768096923828e-01 4.5555523037910461e-01</leafValues></_>
    <_>
      <internalNodes>
        0 -1 19691 -47448065 -243437889 -1540800711 -1181073657
        -46408199 694140924 919723337 -1691355569</internalNodes>
      <leafValues>
        -2.9713517427444458e-01 6.5780204534530640e-01</leafValues></_>
    <_>
      <internalNodes>
        0 -1 27071 368227687 2063269369 -285213785 779845629 -38436880
        -29739401 -1891649606 -1443897349</internalNodes>
      <leafValues>
        -3.5545802116394043e-01 5.2201795578002930e-01</leafValues></_>
    <_>
      <internalNodes>
        0 -1 7539 -872255554 -1883242409 -97595118 -786970614 1208080895
        1553170806 -501749552 230773318</internalNodes>
      <leafValues>
        -5.3539055585861206e-01 3.5502779483795166e-01</leafValues></_>
    <_>
      <internalNodes>
        0 -1 22967 1666275337 422650199 1133809749 -1807695461
        -1023323669 -2013200090 508187625 -861255172</internalNodes>
      <leafValues>
        -4.9322828650474548e-01 4.0419036149978638e-01</leafValues></_></weakClassifiers></stage13>
</opencv_storage>
