<?xml version="1.0"?>
<opencv_storage>
<stage4>
  <maxWeakCount>7</maxWeakCount>
  <stageThreshold>-7.6773291826248169e-01</stageThreshold>
  <weakClassifiers>
    <_>
      <internalNodes>
        0 -1 3290 71452692 4636831 151176312 -258192380 1116228628
        1451450440 798124214 69749576</internalNodes>
      <leafValues>
        -8.4946238994598389e-01 4.6964064240455627e-01</leafValues></_>
    <_>
      <internalNodes>
        0 -1 13849 -548754786 -1357179633 135538963 160892939 -139730500
        404292784 -1332444899 2045979583</internalNodes>
      <leafValues>
        -4.7642341256141663e-01 4.3669641017913818e-01</leafValues></_>
    <_>
      <internalNodes>
        0 -1 21500 905453053 -145112693 -1290578058 903174595 805325624
        738220955 -1199313991 -1078327199</internalNodes>
      <leafValues>
        -4.7447943687438965e-01 4.0185213088989258e-01</leafValues></_>
    <_>
      <internalNodes>
        0 -1 21299 -121643147 -1598063685 791641136 -1650164725
        -704670567 -37880796 96428009 -42242049</internalNodes>
      <leafValues>
        -3.5745078325271606e-01 5.6016540527343750e-01</leafValues></_>
    <_>
      <internalNodes>
        0 -1 570 -501065162 -1539165750 -2135176496 -745832103 20988820
        -1852059637 -98375629 -2105124838</internalNodes>
      <leafValues>
        -5.2479898929595947e-01 3.7414383888244629e-01</leafValues></_>
    <_>
      <internalNodes>
        0 -1 6426 1293768776 1815023871 537932188 -1986990261 1276666189
        536911951 843165725 778598816</internalNodes>
      <leafValues>
        -7.8159606456756592e-01 2.4075193703174591e-01</leafValues></_>
    <_>
      <internalNodes>
        0 -1 27021 744930213 -1987050801 1342260307 -700279995
        1342220313 1770686658 822280997 -247928173</internalNodes>
      <leafValues>
        -5.2130442857742310e-01 3.8970968127250671e-01</leafValues></_></weakClassifiers></stage4>
</opencv_storage>
