<?xml version="1.0"?>
<opencv_storage>
<stage14>
  <maxWeakCount>9</maxWeakCount>
  <stageThreshold>-6.9307363033294678e-01</stageThreshold>
  <weakClassifiers>
    <_>
      <internalNodes>
        0 -1 2790 -26491583 1153253356 -303075390 -1069895954 368524668
        1995439999 1374679892 829472045</internalNodes>
      <leafValues>
        -3.8983049988746643e-01 5.3554505109786987e-01</leafValues></_>
    <_>
      <internalNodes>
        0 -1 2864 -964772865 -1041598940 -318866441 -2069566804 74348358
        -403253265 1862073724 -865665953</internalNodes>
      <leafValues>
        -3.6670801043510437e-01 4.3052664399147034e-01</leafValues></_>
    <_>
      <internalNodes>
        0 -1 26740 -1456113260 -2029256493 -1861053287 350466072
        1134401630 1528733834 -745835958 -1375511606</internalNodes>
      <leafValues>
        -4.4479295611381531e-01 3.6426776647567749e-01</leafValues></_>
    <_>
      <internalNodes>
        0 -1 3211 -1976421342 152043957 420132007 1247184114 -803566846
        1224738921 -805124781 -1234575208</internalNodes>
      <leafValues>
        -5.6406295299530029e-01 2.9387962818145752e-01</leafValues></_>
    <_>
      <internalNodes>
        0 -1 1560 1701525877 -2013134013 466995262 1036911005
        -1482134895 687954697 -224857994 -61367937</internalNodes>
      <leafValues>
        -4.0270859003067017e-01 4.4456183910369873e-01</leafValues></_>
    <_>
      <internalNodes>
        0 -1 27047 1107536765 63914051 -535572405 361388034 -1065180076
        135516803 -1341259740 1110415623</internalNodes>
      <leafValues>
        -4.6990007162094116e-01 4.0235754847526550e-01</leafValues></_>
    <_>
      <internalNodes>
        0 -1 390 1620029489 450728221 -1207877622 -2009802429 817088514
        34316441 -913815389 -850489907</internalNodes>
      <leafValues>
        -5.2066195011138916e-01 3.9350989460945129e-01</leafValues></_>
    <_>
      <internalNodes>
        0 -1 15377 -320624893 -95338286 689178397 -53132739 227459547
        -1190008403 -670858881 -1966754108</internalNodes>
      <leafValues>
        -4.2114236950874329e-01 4.9221554398536682e-01</leafValues></_>
    <_>
      <internalNodes>
        0 -1 8492 97247976 2064723650 285622466 282284545 714693357
        311099586 8628735 1711864136</internalNodes>
      <leafValues>
        -5.9510862827301025e-01 3.6708050966262817e-01</leafValues></_></weakClassifiers></stage14>
</opencv_storage>
