<?xml version="1.0"?>
<opencv_storage>
<stage24>
  <maxWeakCount>9</maxWeakCount>
  <stageThreshold>-9.2339909076690674e-01</stageThreshold>
  <weakClassifiers>
    <_>
      <internalNodes>
        0 -1 27224 1324482880 708298888 -775875380 1301963162 2560165
        127977608 -200785307 33610280</internalNodes>
      <leafValues>
        -6.6473990678787231e-01 4.8003399372100830e-01</leafValues></_>
    <_>
      <internalNodes>
        0 -1 21460 344445366 -1308440424 285295826 809926916 1000475095
        857909512 941688337 864862661</internalNodes>
      <leafValues>
        -6.3748580217361450e-01 2.7459171414375305e-01</leafValues></_>
    <_>
      <internalNodes>
        0 -1 10789 1947801338 1186995589 -1375918217 529428207
        -1327863866 -513429780 2109546439 -552655761</internalNodes>
      <leafValues>
        -3.7672248482704163e-01 4.4014441967010498e-01</leafValues></_>
    <_>
      <internalNodes>
        0 -1 654 -847790817 -573194443 -16457 -1088344394 1543363321
        -41380 -1635885745 -877419009</internalNodes>
      <leafValues>
        -2.6326414942741394e-01 6.5320646762847900e-01</leafValues></_>
    <_>
      <internalNodes>
        0 -1 27125 -1575786457 1723007400 16795148 -457039861
        -2008487905 1250428933 1161530288 -573039718</internalNodes>
      <leafValues>
        -4.4338935613632202e-01 4.0788587927818298e-01</leafValues></_>
    <_>
      <internalNodes>
        0 -1 1621 1660600179 989183996 -16842834 690683891 2138914237
        -461504513 -807415890 -1634500753</internalNodes>
      <leafValues>
        -3.4825143218040466e-01 5.2697074413299561e-01</leafValues></_>
    <_>
      <internalNodes>
        0 -1 23627 2067332381 964143359 -285267463 -1175191554 -34262275
        -260620505 1367162768 -88944705</internalNodes>
      <leafValues>
        -3.7600225210189819e-01 5.4466766119003296e-01</leafValues></_>
    <_>
      <internalNodes>
        0 -1 2951 1475182460 665731004 -268632083 -135713166 -2013388932
        502742653 -1745504813 -1665934105</internalNodes>
      <leafValues>
        -4.0474268794059753e-01 4.6447321772575378e-01</leafValues></_>
    <_>
      <internalNodes>
        0 -1 6867 -1644971563 -708923654 -134287362 -835739 758550268
        922089461 -1208058197 -561204</internalNodes>
      <leafValues>
        -3.1692764163017273e-01 6.2898242473602295e-01</leafValues></_></weakClassifiers></stage24>
</opencv_storage>
