<?xml version="1.0"?>
<opencv_storage>
<stage2>
  <maxWeakCount>8</maxWeakCount>
  <stageThreshold>-9.6189439296722412e-01</stageThreshold>
  <weakClassifiers>
    <_>
      <internalNodes>
        0 -1 8478 -454114162 1069161500 -1933767123 -1919349195
        -383451732 -554422284 -1980453153 215548393</internalNodes>
      <leafValues>
        -3.8998481631278992e-01 5.6687897443771362e-01</leafValues></_>
    <_>
      <internalNodes>
        0 -1 18930 -1432349691 -55619797 -33603851 -609403457 -864030785
        -117273 1044254908 -1497883136</internalNodes>
      <leafValues>
        -4.2291235923767090e-01 4.5605641603469849e-01</leafValues></_>
    <_>
      <internalNodes>
        0 -1 25619 -671092363 -2061024025 -536904067 -1485308121
        -847250192 -1077086723 -1865474928 -1021609987</internalNodes>
      <leafValues>
        -3.6301466822624207e-01 5.4131126403808594e-01</leafValues></_>
    <_>
      <internalNodes>
        0 -1 1640 673061645 -1097152749 -1323232988 -1770564397
        -1725890367 1132560448 1208572064 1820637742</internalNodes>
      <leafValues>
        -6.5899676084518433e-01 3.0497473478317261e-01</leafValues></_>
    <_>
      <internalNodes>
        0 -1 8094 -196079280 2135955551 1249902743 -1390083826
        1884327338 -1400829722 170037135 1339005267</internalNodes>
      <leafValues>
        -4.7236293554306030e-01 4.5240119099617004e-01</leafValues></_>
    <_>
      <internalNodes>
        0 -1 8906 342281335 807056548 -1130061957 -973603084 -1567111433
        -1959936397 -829436241 -2012656575</internalNodes>
      <leafValues>
        -4.4503411650657654e-01 4.8556715250015259e-01</leafValues></_>
    <_>
      <internalNodes>
        0 -1 27224 1826258260 81512886 1887535661 1762345754 1125845449
        865010063 -1050484563 -97201586</internalNodes>
      <leafValues>
        -5.5386579036712646e-01 3.8839018344879150e-01</leafValues></_>
    <_>
      <internalNodes>
        0 -1 15011 -639768324 -63613802 134350864 -662693685 -660438805
        -157151032 1923088783 2074253891</internalNodes>
      <leafValues>
        -4.9255168437957764e-01 4.6199798583984375e-01</leafValues></_></weakClassifiers></stage2>
</opencv_storage>
