<?xml version="1.0"?>
<opencv_storage>
<stage6>
  <maxWeakCount>8</maxWeakCount>
  <stageThreshold>-8.8206392526626587e-01</stageThreshold>
  <weakClassifiers>
    <_>
      <internalNodes>
        0 -1 200 1056377849 251461622 2138799871 748216318 -1091077278
        478142406 905117509 611942333</internalNodes>
      <leafValues>
        -4.9112427234649658e-01 5.2393978834152222e-01</leafValues></_>
    <_>
      <internalNodes>
        0 -1 881 -128114619 1905295437 1363482690 875855883 -1063681955
        -749713280 1646872683 38268827</internalNodes>
      <leafValues>
        -4.8402616381645203e-01 3.9345672726631165e-01</leafValues></_>
    <_>
      <internalNodes>
        0 -1 22923 -1749936993 -1385472648 1862180667 -1309701703
        -977577554 -1342341257 880429848 -1416084368</internalNodes>
      <leafValues>
        -3.9899483323097229e-01 5.0662797689437866e-01</leafValues></_>
    <_>
      <internalNodes>
        0 -1 6908 -724635137 -1215881215 411328728 -1505418313
        -1417641222 178126907 181593308 -876674918</internalNodes>
      <leafValues>
        -4.3024146556854248e-01 4.5931655168533325e-01</leafValues></_>
    <_>
      <internalNodes>
        0 -1 23595 888122815 -1335749791 -913731234 -1242017636
        -1264907812 -1180661559 -1073624067 -1768158232</internalNodes>
      <leafValues>
        -4.8681792616844177e-01 4.0625694394111633e-01</leafValues></_>
    <_>
      <internalNodes>
        0 -1 17654 -216882880 -633295974 554203707 -2092355010
        1260107777 -383188020 -1156535287 -1427909009</internalNodes>
      <leafValues>
        -4.9892041087150574e-01 4.1062486171722412e-01</leafValues></_>
    <_>
      <internalNodes>
        0 -1 1390 -151150808 557895019 -1828596598 1025153281
        -1046849332 513507358 -1694351196 -2886706</internalNodes>
      <leafValues>
        -4.2223736643791199e-01 5.0171124935150146e-01</leafValues></_>
    <_>
      <internalNodes>
        0 -1 20635 -1836687913 959463573 13172761 1020491196 -1832877991
        429396352 193533424 -586710888</internalNodes>
      <leafValues>
        -4.8346325755119324e-01 4.2319035530090332e-01</leafValues></_></weakClassifiers></stage6>
</opencv_storage>
