<?xml version="1.0"?>
<opencv_storage>
<cascade>
  <stageType>BOOST</stageType>
  <featureType>LBP</featureType>
  <height>50</height>
  <width>50</width>
  <stageParams>
    <boostType>GAB</boostType>
    <minHitRate>9.9500000476837158e-01</minHitRate>
    <maxFalseAlarm>5.0000000000000000e-01</maxFalseAlarm>
    <weightTrimRate>9.4999999999999996e-01</weightTrimRate>
    <maxDepth>1</maxDepth>
    <maxWeakCount>100</maxWeakCount></stageParams>
  <featureParams>
    <maxCatCount>256</maxCatCount>
    <featSize>1</featSize></featureParams>
  <stageNum>20</stageNum>
  <stages>
    <!-- stage 0 -->
    <_>
      <maxWeakCount>6</maxWeakCount>
      <stageThreshold>-5.1782530546188354e-01</stageThreshold>
      <weakClassifiers>
        <_>
          <internalNodes>
            0 -1 101 -21380950 -4505726 733939747 657657625 -291860790
            -305791436 690226603 256581551</internalNodes>
          <leafValues>
            -4.0618336200714111e-01 6.9612967967987061e-01</leafValues></_>
        <_>
          <internalNodes>
            0 -1 93 -804132726 1464930318 46201 1434779973 344097678
            17441921 1082132623 1598659407</internalNodes>
          <leafValues>
            -4.5086169242858887e-01 5.0051194429397583e-01</leafValues></_>
        <_>
          <internalNodes>
            0 -1 49 261433145 805298825 -577389682 -1149410897
            -918851185 -1492467573 1052457397 108816855</internalNodes>
          <leafValues>
            -6.7817175388336182e-01 3.0541265010833740e-01</leafValues></_>
        <_>
          <internalNodes>
            0 -1 80 -1615119438 -419450496 1359055118 -438596295
            2142996855 1860122776 1932634662 -1371346124</internalNodes>
          <leafValues>
            -5.5272448062896729e-01 3.8242420554161072e-01</leafValues></_>
        <_>
          <internalNodes>
            0 -1 50 1284492187 1405718617 1494288670 315492241 437315789
            -1471461349 -1727493947 -1771868174</internalNodes>
          <leafValues>
            -5.3410005569458008e-01 3.7663927674293518e-01</leafValues></_>
        <_>
          <internalNodes>
            0 -1 64 -1227721136 538333185 1560441117 -1333870197
            2056217769 -108129647 1015046972 -423877253</internalNodes>
          <leafValues>
            -6.7771267890930176e-01 2.5832802057266235e-01</leafValues></_></weakClassifiers></_>
    <!-- stage 1 -->
    <_>
      <maxWeakCount>8</maxWeakCount>
      <stageThreshold>-1.0031039714813232e+00</stageThreshold>
      <weakClassifiers>
        <_>
          <internalNodes>
            0 -1 94 -33570166 -75526660 623706895 893325069 -1128923218
            -47923316 222236639 218714249</internalNodes>
          <leafValues>
            -3.4586465358734131e-01 5.9746587276458740e-01</leafValues></_>
        <_>
          <internalNodes>
            0 -1 3 1989181383 -1439964177 1967610342 777669583
            -609260443 -572682578 814592885 -1999352843</internalNodes>
          <leafValues>
            -5.8937901258468628e-01 3.5437324643135071e-01</leafValues></_>
        <_>
          <internalNodes>
            0 -1 86 1610607479 -147849414 -83952135 -9175065 2112978799
            -36602001 1441773476 -1425213582</internalNodes>
          <leafValues>
            -3.5061660408973694e-01 5.1592999696731567e-01</leafValues></_>
        <_>
          <internalNodes>
            0 -1 140 -474497497 -2116239237 -799579117 1657234998
            2103699671 1923646415 1537708724 242570750</internalNodes>
          <leafValues>
            -4.9549612402915955e-01 4.0618687868118286e-01</leafValues></_>
        <_>
          <internalNodes>
            0 -1 33 1375728383 1122136062 -1157796867 -289510418
            -436607555 -310542851 1039955452 -179865217</internalNodes>
          <leafValues>
            -3.9677876234054565e-01 4.9481609463691711e-01</leafValues></_>
        <_>
          <internalNodes>
            0 -1 13 727605874 1173696565 -553584402 437058309 -309863297
            1352090781 -275915975 -1066510119</internalNodes>
          <leafValues>
            -5.5394017696380615e-01 3.6667609214782715e-01</leafValues></_>
        <_>
          <internalNodes>
            0 -1 36 -741619976 2113781835 -243215904 2135947465
            -1058410262 1093075099 -1736386334 1498370267</internalNodes>
          <leafValues>
            -5.0891518592834473e-01 3.8960954546928406e-01</leafValues></_>
        <_>
          <internalNodes>
            0 -1 73 -136900639 1962983623 -1929314070 -355231322
            1910242103 1636425737 -2140149186 -1548631004</internalNodes>
          <leafValues>
            -4.9302861094474792e-01 3.8881227374076843e-01</leafValues></_></weakClassifiers></_>
    <!-- stage 2 -->
    <_>
      <maxWeakCount>8</maxWeakCount>
      <stageThreshold>-8.4325236082077026e-01</stageThreshold>
      <weakClassifiers>
        <_>
          <internalNodes>
            0 -1 0 965753578 -1505775335 -1316907336 719770931
            1460370017 706955389 -1545811116 1626629556</internalNodes>
          <leafValues>
            -8.7671232223510742e-01 4.7146207094192505e-01</leafValues></_>
        <_>
          <internalNodes>
            0 -1 107 -44704368 -712555236 1133707539 -247131847
            -1272804434 -528416612 211692351 1054818111</internalNodes>
          <leafValues>
            -4.5648983120918274e-01 3.9194986224174500e-01</leafValues></_>
        <_>
          <internalNodes>
            0 -1 120 -1078214854 -70192547 361486494 -1778760942
            1251017384 2091485193 -1689554264 -1124590372</internalNodes>
          <leafValues>
            -5.0061959028244019e-01 3.3090409636497498e-01</leafValues></_>
        <_>
          <internalNodes>
            0 -1 152 -389286601 -280399296 -971834914 -300744122
            -1048096346 2073494154 -1567468684 -38347788</internalNodes>
          <leafValues>
            -4.3238615989685059e-01 3.9094653725624084e-01</leafValues></_>
        <_>
          <internalNodes>
            0 -1 57 -831746175 1616727433 -1064216201 -1500048550
            723470569 1124837967 -778405898 -1342220392</internalNodes>
          <leafValues>
            -4.3293818831443787e-01 4.0406379103660583e-01</leafValues></_>
        <_>
          <internalNodes>
            0 -1 42 798694233 247353566 -183922531 1619226747 958262063
            1636678046 -1153191577 -1210704011</internalNodes>
          <leafValues>
            -5.9138524532318115e-01 2.9672682285308838e-01</leafValues></_>
        <_>
          <internalNodes>
            0 -1 43 2012528633 1568014318 -1342196033 635737970
            2138537790 -402882561 1862217711 -559196186</internalNodes>
          <leafValues>
            -3.7855860590934753e-01 4.7519111633300781e-01</leafValues></_>
        <_>
          <internalNodes>
            0 -1 72 -606270034 -673541569 -780057210 -1327867814
            684214523 291195008 -1597802320 1843659136</internalNodes>
          <leafValues>
            -6.0275638103485107e-01 3.0031546950340271e-01</leafValues></_></weakClassifiers></_>
    <!-- stage 3 -->
    <_>
      <maxWeakCount>8</maxWeakCount>
      <stageThreshold>-4.5742216706275940e-01</stageThreshold>
      <weakClassifiers>
        <_>
          <internalNodes>
            0 -1 148 799096697 1857384447 -286787865 782680052
            1060330959 2125971391 1744271220 -1535934636</internalNodes>
          <leafValues>
            -3.8390803337097168e-01 5.4630261659622192e-01</leafValues></_>
        <_>
          <internalNodes>
            0 -1 5 548795194 505122942 -207226418 -1096924795 2031868342
            2063172115 -75369644 -1497566347</internalNodes>
          <leafValues>
            -5.3388488292694092e-01 3.3423554897308350e-01</leafValues></_>
        <_>
          <internalNodes>
            0 -1 90 -254354738 -210673842 269364983 25500837 -1802993522
            -2003980724 276948939 527375755</internalNodes>
          <leafValues>
            -4.0085175633430481e-01 4.3290624022483826e-01</leafValues></_>
        <_>
          <internalNodes>
            0 -1 49 -1919602885 697944359 -162964084 -1152560665
            -855422353 889950123 623837477 1450276992</internalNodes>
          <leafValues>
            -7.1142536401748657e-01 2.1683782339096069e-01</leafValues></_>
        <_>
          <internalNodes>
            0 -1 41 2109177785 -1372176897 2018827610 1999635213
            -25120707 -1147352533 -741691911 -1416745522</internalNodes>
          <leafValues>
            -4.2084562778472900e-01 4.0483143925666809e-01</leafValues></_>
        <_>
          <internalNodes>
            0 -1 18 -178814115 370590469 974341448 1146363983 -888640448
            1784709129 -1441134054 -1405120065</internalNodes>
          <leafValues>
            -4.8257359862327576e-01 3.7328952550888062e-01</leafValues></_>
        <_>
          <internalNodes>
            0 -1 119 -1164136517 -92930123 -1279328274 -1275314187
            1811900313 -1925316883 -941713448 -1312846480</internalNodes>
          <leafValues>
            -3.5216715931892395e-01 4.8060369491577148e-01</leafValues></_>
        <_>
          <internalNodes>
            0 -1 139 1610594836 1648808347 42062298 -426828425
            -115613705 2051637505 663695162 2043171738</internalNodes>
          <leafValues>
            -6.1532711982727051e-01 3.1039521098136902e-01</leafValues></_></weakClassifiers></_>
    <!-- stage 4 -->
    <_>
      <maxWeakCount>7</maxWeakCount>
      <stageThreshold>-1.0163784027099609e+00</stageThreshold>
      <weakClassifiers>
        <_>
          <internalNodes>
            0 -1 48 737566005 -1395252899 -955986434 -1427218702
            1135047472 1469514011 -123266700 687106340</internalNodes>
          <leafValues>
            -7.0479702949523926e-01 5.0603640079498291e-01</leafValues></_>
        <_>
          <internalNodes>
            0 -1 122 215680255 253595967 -846476897 -325925891
            -1365779683 2145113327 -1698791723 -320803244</internalNodes>
          <leafValues>
            -4.8143497109413147e-01 3.6987733840942383e-01</leafValues></_>
        <_>
          <internalNodes>
            0 -1 102 -31791446 -1110046694 201525183 266543879
            -392461412 -391565300 -1392104550 1878986495</internalNodes>
          <leafValues>
            -4.7673007845878601e-01 3.5777193307876587e-01</leafValues></_>
        <_>
          <internalNodes>
            0 -1 144 1035793468 720646331 -623905385 -429090342
            -1177322201 1841778858 980890720 -1527439312</internalNodes>
          <leafValues>
            -6.4637535810470581e-01 2.4139282107353210e-01</leafValues></_>
        <_>
          <internalNodes>
            0 -1 81 1342147871 802485685 -1717044805 131857862
            -751338626 398299319 -1145889982 275602253</internalNodes>
          <leafValues>
            -6.1058455705642700e-01 2.6773864030838013e-01</leafValues></_>
        <_>
          <internalNodes>
            0 -1 22 1867459636 1046272288 -1014676338 1954609251
            -923647484 -83524335 -934606804 764629453</internalNodes>
          <leafValues>
            -6.8656575679779053e-01 2.4809312820434570e-01</leafValues></_>
        <_>
          <internalNodes>
            0 -1 58 -96341647 -664887406 278122987 83284504 -628922551
            1275904554 -71806029 -326134626</internalNodes>
          <leafValues>
            -4.3370616436004639e-01 4.1001448035240173e-01</leafValues></_></weakClassifiers></_>
    <!-- stage 5 -->
    <_>
      <maxWeakCount>6</maxWeakCount>
      <stageThreshold>-5.2628409862518311e-01</stageThreshold>
      <weakClassifiers>
        <_>
          <internalNodes>
            0 -1 70 721235256 1862261202 -620635410 -1460759127
            1917024093 1706791016 1904632304 687644520</internalNodes>
          <leafValues>
            -7.1134018898010254e-01 4.9796912074089050e-01</leafValues></_>
        <_>
          <internalNodes>
            0 -1 37 -545456591 -1600481983 -687636082 517642380
            1079509461 -1295464157 854657369 -2005829727</internalNodes>
          <leafValues>
            -5.1281619071960449e-01 3.2726556062698364e-01</leafValues></_>
        <_>
          <internalNodes>
            0 -1 98 -654460696 -14954369 823460399 2069352461 -628368931
            -776816376 -108340581 2138623117</internalNodes>
          <leafValues>
            -4.3877819180488586e-01 3.7914156913757324e-01</leafValues></_>
        <_>
          <internalNodes>
            0 -1 143 -548585548 -2133552494 1372069493 1792626642
            1939567605 -1694428409 1250932765 -1345050179</internalNodes>
          <leafValues>
            -5.5869626998901367e-01 2.9525637626647949e-01</leafValues></_>
        <_>
          <internalNodes>
            0 -1 24 2144221135 1297470275 -1039023161 -1127331569
            -1988075259 983386505 402785068 -305234094</internalNodes>
          <leafValues>
            -4.8990118503570557e-01 3.5093247890472412e-01</leafValues></_>
        <_>
          <internalNodes>
            0 -1 63 417670938 605940947 -1498875978 1821294146
            1909151929 -169377141 -221420752 1990672162</internalNodes>
          <leafValues>
            -7.0497679710388184e-01 2.5912541151046753e-01</leafValues></_></weakClassifiers></_>
    <!-- stage 6 -->
    <_>
      <maxWeakCount>8</maxWeakCount>
      <stageThreshold>-7.6510721445083618e-01</stageThreshold>
      <weakClassifiers>
        <_>
          <internalNodes>
            0 -1 55 -1495896966 115235155 -485369906 1251618044
            1136669536 1974683815 -879470379 744627577</internalNodes>
          <leafValues>
            -6.5941101312637329e-01 4.9095344543457031e-01</leafValues></_>
        <_>
          <internalNodes>
            0 -1 157 -1518354700 -1523218403 1898694905 -247166653
            8718384 -1551719800 220580344 -413713606</internalNodes>
          <leafValues>
            -4.2022606730461121e-01 3.7076595425605774e-01</leafValues></_>
        <_>
          <internalNodes>
            0 -1 100 -3677746 -612420931 1192594600 -174600953
            -1425348387 -1922902404 -343687505 2141050015</internalNodes>
          <leafValues>
            -3.9984628558158875e-01 4.2725744843482971e-01</leafValues></_>
        <_>
          <internalNodes>
            0 -1 59 -654325509 92093743 -1359200263 -92868633 -646190277
            364027903 -43664292 -135286406</internalNodes>
          <leafValues>
            -3.4554815292358398e-01 4.7910824418067932e-01</leafValues></_>
        <_>
          <internalNodes>
            0 -1 159 1650645285 -587737836 -1860968450 630485367
            1331655610 1057587435 -1413161873 -4654347</internalNodes>
          <leafValues>
            -4.1879463195800781e-01 4.1251882910728455e-01</leafValues></_>
        <_>
          <internalNodes>
            0 -1 20 1556075749 1878785918 2147413487 1928151037
            -1342246914 -315529 -268681990 -1258295681</internalNodes>
          <leafValues>
            -3.6217656731605530e-01 5.5366480350494385e-01</leafValues></_>
        <_>
          <internalNodes>
            0 -1 29 -462072523 618590658 1225806672 -37364321 -977149840
            -1990098807 -1062053435 1307835828</internalNodes>
          <leafValues>
            -5.4292333126068115e-01 3.6163282394409180e-01</leafValues></_>
        <_>
          <internalNodes>
            0 -1 112 735123377 838500349 1999599091 -639810407 683413454
            -1157866511 259161535 -574962383</internalNodes>
          <leafValues>
            -3.8219404220581055e-01 5.0119650363922119e-01</leafValues></_></weakClassifiers></_>
    <!-- stage 7 -->
    <_>
      <maxWeakCount>9</maxWeakCount>
      <stageThreshold>-8.4754741191864014e-01</stageThreshold>
      <weakClassifiers>
        <_>
          <internalNodes>
            0 -1 160 756048906 652185631 1728172518 -1101347018
            -842059768 462291091 947014517 75279092</internalNodes>
          <leafValues>
            -7.4021911621093750e-01 4.6887966990470886e-01</leafValues></_>
        <_>
          <internalNodes>
            0 -1 83 1943786204 -80253833 31965435 1775595039 -210240514
            -1115758865 -12256805 1564868431</internalNodes>
          <leafValues>
            -3.4546533226966858e-01 4.4816365838050842e-01</leafValues></_>
        <_>
          <internalNodes>
            0 -1 54 -327702981 314400759 -272830722 800522230
            -1744879815 -2046857362 1937137658 -104956423</internalNodes>
          <leafValues>
            -3.6970549821853638e-01 4.3930980563163757e-01</leafValues></_>
        <_>
          <internalNodes>
            0 -1 121 -1623663717 -170185298 -1100251137 1574905917
            998235291 -1149650241 -734492437 -39301965</internalNodes>
          <leafValues>
            -2.9443445801734924e-01 5.7514971494674683e-01</leafValues></_>
        <_>
          <internalNodes>
            0 -1 156 -1344457489 -1482781156 479638014 -1229496555
            48772463 -787806077 -1026754595 -1890692569</internalNodes>
          <leafValues>
            -4.7172451019287109e-01 3.8434070348739624e-01</leafValues></_>
        <_>
          <internalNodes>
            0 -1 50 -827069381 298423131 1503255694 -137637381
            -1171867541 -1455474581 -1664497588 -25201673</internalNodes>
          <leafValues>
            -4.1662472486495972e-01 4.3951946496963501e-01</leafValues></_>
        <_>
          <internalNodes>
            0 -1 35 -1860184013 -325238440 1896221551 1873566215
            -706635009 2112063661 -720477728 1148773828</internalNodes>
          <leafValues>
            -5.5469018220901489e-01 3.3944305777549744e-01</leafValues></_>
        <_>
          <internalNodes>
            0 -1 141 -1380235784 87732484 285364548 1976094813 361584837
            -843603830 1254578411 1435962557</internalNodes>
          <leafValues>
            -5.6577712297439575e-01 3.2082125544548035e-01</leafValues></_>
        <_>
          <internalNodes>
            0 -1 15 -95039631 -1877983366 -802041304 403561305 997960598
            1401129643 1883988244 343784303</internalNodes>
          <leafValues>
            -5.1837909221649170e-01 3.5187971591949463e-01</leafValues></_></weakClassifiers></_>
    <!-- stage 8 -->
    <_>
      <maxWeakCount>8</maxWeakCount>
      <stageThreshold>-5.0591456890106201e-01</stageThreshold>
      <weakClassifiers>
        <_>
          <internalNodes>
            0 -1 66 1727282588 113180094 2044624633 650428415 -8948362
            1694203903 -1661600453 187203158</internalNodes>
          <leafValues>
            -4.5487365126609802e-01 5.2351915836334229e-01</leafValues></_>
        <_>
          <internalNodes>
            0 -1 150 -1400945282 -1097730 -196754 1005387007 -1241514457
            -134885378 364634109 -37814916</internalNodes>
          <leafValues>
            -3.5896205902099609e-01 4.6358153223991394e-01</leafValues></_>
        <_>
          <internalNodes>
            0 -1 25 -286339073 -17108014 -17399813 614757418 6542697
            -22563715 511501309 -286262017</internalNodes>
          <leafValues>
            -3.3079844713211060e-01 4.9569267034530640e-01</leafValues></_>
        <_>
          <internalNodes>
            0 -1 126 823487925 1721073984 1360101523 -1300217702
            678112924 1368950987 563076345 -1372886664</internalNodes>
          <leafValues>
            -4.0346860885620117e-01 4.0062308311462402e-01</leafValues></_>
        <_>
          <internalNodes>
            0 -1 2 -1550556097 -1363167783 1947957686 -1365977027
            44295271 1931057249 1628121575 -1892287496</internalNodes>
          <leafValues>
            -6.1553341150283813e-01 2.8824213147163391e-01</leafValues></_>
        <_>
          <internalNodes>
            0 -1 8 -329368012 -593063805 1441063297 -1743175206
            302727231 2128183466 1493817891 1475248127</internalNodes>
          <leafValues>
            -5.9538972377777100e-01 2.7787551283836365e-01</leafValues></_>
        <_>
          <internalNodes>
            0 -1 118 -1428215701 657997829 -1811803356 -1266138665
            -360181597 -838287103 -1400206358 -1097307796</internalNodes>
          <leafValues>
            -4.6026280522346497e-01 3.8801676034927368e-01</leafValues></_>
        <_>
          <internalNodes>
            0 -1 52 176532686 2060704388 -648965922 1807171766 134286062
            -231071463 824435320 1652576727</internalNodes>
          <leafValues>
            -5.8803182840347290e-01 2.9001110792160034e-01</leafValues></_></weakClassifiers></_>
    <!-- stage 9 -->
    <_>
      <maxWeakCount>9</maxWeakCount>
      <stageThreshold>-6.8281233310699463e-01</stageThreshold>
      <weakClassifiers>
        <_>
          <internalNodes>
            0 -1 44 -1376899804 775073567 -717125158 2090527639
            2040355553 1250525202 1208682852 138420188</internalNodes>
          <leafValues>
            -6.5034967660903931e-01 4.7442325949668884e-01</leafValues></_>
        <_>
          <internalNodes>
            0 -1 76 -411886545 882688983 -1788569461 1006505991
            -608623819 -380794085 -979669424 2114640743</internalNodes>
          <leafValues>
            -4.6234780550003052e-01 3.2317414879798889e-01</leafValues></_>
        <_>
          <internalNodes>
            0 -1 113 -241692 -1094715234 -137020236 1072737526
            -105492526 -275911291 -1445927688 -12935425</internalNodes>
          <leafValues>
            -3.5847294330596924e-01 4.6095666289329529e-01</leafValues></_>
        <_>
          <internalNodes>
            0 -1 75 -843585157 -282400905 -1082131107 -2066420289
            1794463089 -1619345423 -588067339 -233317509</internalNodes>
          <leafValues>
            -3.1501898169517517e-01 4.9086353182792664e-01</leafValues></_>
        <_>
          <internalNodes>
            0 -1 147 1722526226 -835622638 -788522548 -15432785
            453912249 -97943064 -644875928 2129806207</internalNodes>
          <leafValues>
            -5.1559793949127197e-01 2.9885554313659668e-01</leafValues></_>
        <_>
          <internalNodes>
            0 -1 117 -759573420 -1152121627 707819801 839087068
            -48676523 -100987123 -1954299971 -1084236291</internalNodes>
          <leafValues>
            -3.7863394618034363e-01 4.4915968179702759e-01</leafValues></_>
        <_>
          <internalNodes>
            0 -1 85 -811946242 1189074619 -1048081613 -1230715086
            -894893445 -1416887669 -1330990969 -524288347</internalNodes>
          <leafValues>
            -4.4559070467948914e-01 3.8109362125396729e-01</leafValues></_>
        <_>
          <internalNodes>
            0 -1 30 -1625812105 -1886760633 -653812322 2131088679
            1234427643 1135316195 -712379516 1688764901</internalNodes>
          <leafValues>
            -5.3956711292266846e-01 3.0779817700386047e-01</leafValues></_>
        <_>
          <internalNodes>
            0 -1 149 -426285808 -87300013 -2130640386 396016203
            1372318165 -896871806 2139875909 -1803281545</internalNodes>
          <leafValues>
            -5.5284029245376587e-01 3.4762209653854370e-01</leafValues></_></weakClassifiers></_>
    <!-- stage 10 -->
    <_>
      <maxWeakCount>9</maxWeakCount>
      <stageThreshold>-7.6273822784423828e-01</stageThreshold>
      <weakClassifiers>
        <_>
          <internalNodes>
            0 -1 4 1015590717 1289045258 1904858428 -1094535872
            -209636596 -1987919846 -40680589 66869552</internalNodes>
          <leafValues>
            -5.4965358972549438e-01 4.9151840806007385e-01</leafValues></_>
        <_>
          <internalNodes>
            0 -1 60 -623527544 551987455 -82449 -537236772 -680857738
            2137915262 -1107361796 -1646006029</internalNodes>
          <leafValues>
            -3.7316319346427917e-01 4.0378037095069885e-01</leafValues></_>
        <_>
          <internalNodes>
            0 -1 9 -1080078091 1913671826 1073840258 692901063 30395067
            1795342409 1514351217 -2045454139</internalNodes>
          <leafValues>
            -5.1047503948211670e-01 3.1675055623054504e-01</leafValues></_>
        <_>
          <internalNodes>
            0 -1 138 -1644189779 -780516664 -180300906 524783311
            -391395092 -78601856 -1142908424 2011779643</internalNodes>
          <leafValues>
            -3.8954189419746399e-01 3.9476010203361511e-01</leafValues></_>
        <_>
          <internalNodes>
            0 -1 61 -169889952 -1517293371 465490925 1956798870 6744549
            1201165467 -1728187920 -17457826</internalNodes>
          <leafValues>
            -4.6540242433547974e-01 3.4453651309013367e-01</leafValues></_>
        <_>
          <internalNodes>
            0 -1 146 399568690 -1429089134 -1321050441 1402327440
            948338345 143409153 1388935415 1844264260</internalNodes>
          <leafValues>
            -5.9316694736480713e-01 2.7250817418098450e-01</leafValues></_>
        <_>
          <internalNodes>
            0 -1 34 -1354898055 2046263166 -539492906 -27721957
            -33652772 1503510005 -1265632337 -1342324761</internalNodes>
          <leafValues>
            -3.4800651669502258e-01 4.9744591116905212e-01</leafValues></_>
        <_>
          <internalNodes>
            0 -1 16 -526665602 -804467911 1359688465 -501497781
            1771039018 1233315532 -896924345 -588647178</internalNodes>
          <leafValues>
            -4.6099674701690674e-01 3.7834557890892029e-01</leafValues></_>
        <_>
          <internalNodes>
            0 -1 114 -1206888001 -174767915 554785691 -1718091498
            990322588 -74707933 260975512 959053985</internalNodes>
          <leafValues>
            -4.3746560811996460e-01 4.0660163760185242e-01</leafValues></_></weakClassifiers></_>
    <!-- stage 11 -->
    <_>
      <maxWeakCount>10</maxWeakCount>
      <stageThreshold>-7.8484797477722168e-01</stageThreshold>
      <weakClassifiers>
        <_>
          <internalNodes>
            0 -1 28 136054764 -1405992838 -2128379706 2134256013
            864543735 1518518276 -998055104 750133236</internalNodes>
          <leafValues>
            -6.9552236795425415e-01 4.7037774324417114e-01</leafValues></_>
        <_>
          <internalNodes>
            0 -1 155 -352915501 -1448558731 1852669871 -898433419
            2029928437 1794916188 2097037046 -113879041</internalNodes>
          <leafValues>
            -3.3745411038398743e-01 4.2809501290321350e-01</leafValues></_>
        <_>
          <internalNodes>
            0 -1 65 1967687624 -168680592 -2063432765 -1420541576
            991705971 -506961257 -1544607314 1348435590</internalNodes>
          <leafValues>
            -5.0377660989761353e-01 3.3665454387664795e-01</leafValues></_>
        <_>
          <internalNodes>
            0 -1 133 -4479360 -1919209209 -761933635 -52445151
            -1869414913 -1340501597 -700089734 -314745220</internalNodes>
          <leafValues>
            -4.3296965956687927e-01 3.5530215501785278e-01</leafValues></_>
        <_>
          <internalNodes>
            0 -1 11 620624701 591132674 -1794518482 -1714499397
            729893801 2072215711 -624931598 -1246324676</internalNodes>
          <leafValues>
            -4.6239146590232849e-01 3.3994930982589722e-01</leafValues></_>
        <_>
          <internalNodes>
            0 -1 67 -84227264 628316639 -988806132 -1697450603 529788067
            1540490402 1066340695 1660140343</internalNodes>
          <leafValues>
            -6.1220723390579224e-01 2.9053443670272827e-01</leafValues></_>
        <_>
          <internalNodes>
            0 -1 153 -423984123 -289086813 1493193119 -2099871695
            -1029484511 -1994358781 -360189467 -1535287107</internalNodes>
          <leafValues>
            -5.3586608171463013e-01 3.1190022826194763e-01</leafValues></_>
        <_>
          <internalNodes>
            0 -1 108 -1342266577 -269668993 -168118529 -34127886
            528410346 -1380518417 48552158 -2133408740</internalNodes>
          <leafValues>
            -4.1161066293716431e-01 4.3205964565277100e-01</leafValues></_>
        <_>
          <internalNodes>
            0 -1 145 -389091804 -35979114 -916635597 702566596 928727108
            1684275747 -1152808924 -2114193910</internalNodes>
          <leafValues>
            -4.7346022725105286e-01 3.6683779954910278e-01</leafValues></_>
        <_>
          <internalNodes>
            0 -1 88 769591946 -409489979 -2062286427 771721071
            -1122940981 -104496372 195801791 -876114491</internalNodes>
          <leafValues>
            -4.2216324806213379e-01 4.2297241091728210e-01</leafValues></_></weakClassifiers></_>
    <!-- stage 12 -->
    <_>
      <maxWeakCount>9</maxWeakCount>
      <stageThreshold>-7.5626945495605469e-01</stageThreshold>
      <weakClassifiers>
        <_>
          <internalNodes>
            0 -1 47 734289185 441501868 1360118143 -1332422388
            -804785919 1938571651 580569466 12070524</internalNodes>
          <leafValues>
            -6.6998577117919922e-01 4.7448468208312988e-01</leafValues></_>
        <_>
          <internalNodes>
            0 -1 79 1725938464 739506759 -804859834 -1360374817
            2039705653 1531643931 2139810132 71139061</internalNodes>
          <leafValues>
            -7.3007047176361084e-01 2.0980884134769440e-01</leafValues></_>
        <_>
          <internalNodes>
            0 -1 17 -352668327 1063518063 -1090715812 1060863847
            -411697793 1920466943 -486541318 -1059332249</internalNodes>
          <leafValues>
            -3.4856092929840088e-01 4.3306037783622742e-01</leafValues></_>
        <_>
          <internalNodes>
            0 -1 6 248958711 -1988334217 -510396557 -288733486
            -1366105117 1270536419 1597223287 -818457742</internalNodes>
          <leafValues>
            -3.8381391763687134e-01 3.8875290751457214e-01</leafValues></_>
        <_>
          <internalNodes>
            0 -1 87 -1323356483 2102585690 -1852784261 -908194810
            1896495343 730791978 831222213 1576391837</internalNodes>
          <leafValues>
            -4.2568626999855042e-01 3.6683416366577148e-01</leafValues></_>
        <_>
          <internalNodes>
            0 -1 38 -1257769779 1817078247 1360365031 -1112375897
            -1064621911 -502578457 -1888505353 2063199217</internalNodes>
          <leafValues>
            -4.5012703537940979e-01 3.4950301051139832e-01</leafValues></_>
        <_>
          <internalNodes>
            0 -1 51 1686458867 -67448689 1346539904 124606343 -536133623
            -1165458909 434819760 1965805950</internalNodes>
          <leafValues>
            -4.2137613892555237e-01 4.1399213671684265e-01</leafValues></_>
        <_>
          <internalNodes>
            0 -1 92 -1378545181 285964574 295293018 844858917 983761365
            1351720971 168478971 -18027613</internalNodes>
          <leafValues>
            -4.3896523118019104e-01 4.1175758838653564e-01</leafValues></_>
        <_>
          <internalNodes>
            0 -1 27 402642763 -1368543633 921694898 1158624959
            -1342343412 -1644298242 1677063089 -745710661</internalNodes>
          <leafValues>
            -3.8597232103347778e-01 4.4709131121635437e-01</leafValues></_></weakClassifiers></_>
    <!-- stage 13 -->
    <_>
      <maxWeakCount>9</maxWeakCount>
      <stageThreshold>-6.8788653612136841e-01</stageThreshold>
      <weakClassifiers>
        <_>
          <internalNodes>
            0 -1 7 417098636 607813699 -1052668464 851473746 1346469231
            -368607099 -655466380 149699061</internalNodes>
          <leafValues>
            -7.5409835577011108e-01 4.6365422010421753e-01</leafValues></_>
        <_>
          <internalNodes>
            0 -1 116 -1061669615 995864221 -1114229 1031610125
            -1135624271 -10092613 721219352 -129341254</internalNodes>
          <leafValues>
            -3.2898262143135071e-01 4.2608773708343506e-01</leafValues></_>
        <_>
          <internalNodes>
            0 -1 39 -587343639 -1051638708 -1308426211 949963672
            1326361361 2076188873 1909642698 1071495466</internalNodes>
          <leafValues>
            -3.7774267792701721e-01 4.1343718767166138e-01</leafValues></_>
        <_>
          <internalNodes>
            0 -1 1 -286327447 -1090609172 -176300087 1064302564
            -142876678 -1073741825 -1616054914 -2017728521</internalNodes>
          <leafValues>
            -3.3404514193534851e-01 4.8793908953666687e-01</leafValues></_>
        <_>
          <internalNodes>
            0 -1 137 699920997 -965046258 -799682281 605470915 17073020
            2064662683 539050122 1874704135</internalNodes>
          <leafValues>
            -4.9443805217742920e-01 3.5066264867782593e-01</leafValues></_>
        <_>
          <internalNodes>
            0 -1 77 -2089341137 2103775639 -312897429 -224470352
            696327996 -848637630 1485456107 -1358890731</internalNodes>
          <leafValues>
            -4.7700655460357666e-01 3.5879787802696228e-01</leafValues></_>
        <_>
          <internalNodes>
            0 -1 131 -1879126165 1877966718 1459613303 -234881797 -2414
            -134283396 -1778516114 -1611172702</internalNodes>
          <leafValues>
            -3.7675762176513672e-01 4.6534198522567749e-01</leafValues></_>
        <_>
          <internalNodes>
            0 -1 21 1602540658 -1748706525 269865419 1714936774
            -250677135 1695459713 1515578216 870478663</internalNodes>
          <leafValues>
            -5.7067286968231201e-01 3.3226472139358521e-01</leafValues></_>
        <_>
          <internalNodes>
            0 -1 71 -253805782 588677261 -2126409519 1884987855
            897699963 1671528473 -2011673388 1288009942</internalNodes>
          <leafValues>
            -6.4108306169509888e-01 2.6789072155952454e-01</leafValues></_></weakClassifiers></_>
    <!-- stage 14 -->
    <_>
      <maxWeakCount>8</maxWeakCount>
      <stageThreshold>-6.4971935749053955e-01</stageThreshold>
      <weakClassifiers>
        <_>
          <internalNodes>
            0 -1 142 1860052740 -967052919 -711470274 -1973776340
            818732825 9120643 1460093553 779436780</internalNodes>
          <leafValues>
            -5.7918053865432739e-01 5.0510734319686890e-01</leafValues></_>
        <_>
          <internalNodes>
            0 -1 68 2084845844 1205470170 -427765348 680924294
            -402490943 1380094090 -251411586 -2047409735</internalNodes>
          <leafValues>
            -5.4791104793548584e-01 3.0335962772369385e-01</leafValues></_>
        <_>
          <internalNodes>
            0 -1 53 549605247 -871496765 1426280988 37820465 1344927220
            -308704326 63515455 -303871531</internalNodes>
          <leafValues>
            -4.4056025147438049e-01 3.6842733621597290e-01</leafValues></_>
        <_>
          <internalNodes>
            0 -1 134 -1367997683 -1424817779 -1860806379 -95910689
            1435524459 1577287819 -1125176495 -286328004</internalNodes>
          <leafValues>
            -4.9591153860092163e-01 3.0566364526748657e-01</leafValues></_>
        <_>
          <internalNodes>
            0 -1 40 734854000 211735741 -651966368 -331742905 8530417
            1913369818 1382709333 -9018930</internalNodes>
          <leafValues>
            -5.6630891561508179e-01 2.8220403194427490e-01</leafValues></_>
        <_>
          <internalNodes>
            0 -1 136 -188764867 120123335 -14287171 -776937601
            1626451224 154709448 611918978 -148180269</internalNodes>
          <leafValues>
            -3.8874307274818420e-01 4.5091062784194946e-01</leafValues></_>
        <_>
          <internalNodes>
            0 -1 14 183650673 819786839 359793304 -1212166952 -779136307
            2064642767 -410212097 790720883</internalNodes>
          <leafValues>
            -5.4284417629241943e-01 3.0694052577018738e-01</leafValues></_>
        <_>
          <internalNodes>
            0 -1 32 -142896427 1216229364 805301967 -104076546
            -982336836 754728947 2029748058 1369177854</internalNodes>
          <leafValues>
            -3.9712023735046387e-01 4.3906408548355103e-01</leafValues></_></weakClassifiers></_>
    <!-- stage 15 -->
    <_>
      <maxWeakCount>9</maxWeakCount>
      <stageThreshold>-7.2572487592697144e-01</stageThreshold>
      <weakClassifiers>
        <_>
          <internalNodes>
            0 -1 151 211630938 -1886924793 -1240312578 775197528
            1878752885 195788811 -318093004 30420853</internalNodes>
          <leafValues>
            -7.0793652534484863e-01 4.6272188425064087e-01</leafValues></_>
        <_>
          <internalNodes>
            0 -1 74 555433246 -185054187 1091165085 1577031701
            -107260298 1963190296 -656201204 -824458395</internalNodes>
          <leafValues>
            -3.8574272394180298e-01 3.7931489944458008e-01</leafValues></_>
        <_>
          <internalNodes>
            0 -1 45 420918733 504874188 285332683 1026081146 -1142316776
            462848161 730434141 855628193</internalNodes>
          <leafValues>
            -4.4244596362113953e-01 3.4765696525573730e-01</leafValues></_>
        <_>
          <internalNodes>
            0 -1 95 -779890080 -604028310 77989888 -515811036 -550841428
            -638920479 849867771 122945107</internalNodes>
          <leafValues>
            -5.0938892364501953e-01 3.0076640844345093e-01</leafValues></_>
        <_>
          <internalNodes>
            0 -1 31 -388080882 131089309 807731481 -745287552
            -1073622599 -2129491949 -234180457 -7617846</internalNodes>
          <leafValues>
            -3.7224289774894714e-01 4.0797117352485657e-01</leafValues></_>
        <_>
          <internalNodes>
            0 -1 124 -1621494466 -1273249425 -922643494 2008754550
            1506523376 295862687 -224547097 784711157</internalNodes>
          <leafValues>
            -5.0646752119064331e-01 3.2478895783424377e-01</leafValues></_>
        <_>
          <internalNodes>
            0 -1 12 1211282342 -2049068753 1809127429 -1496317577
            -1945808389 -1685487487 -777842525 240796544</internalNodes>
          <leafValues>
            -5.5824655294418335e-01 3.0706363916397095e-01</leafValues></_>
        <_>
          <internalNodes>
            0 -1 103 -2118421001 1030293396 1052515899 -1613132168
            499478265 -3168274 64312831 -1349630931</internalNodes>
          <leafValues>
            -3.7453296780586243e-01 4.7470682859420776e-01</leafValues></_>
        <_>
          <internalNodes>
            0 -1 69 -1867525750 2093928851 680643030 1875481688
            -1019115283 269025410 -1130270354 -1144155115</internalNodes>
          <leafValues>
            -4.1590747237205505e-01 4.1276496648788452e-01</leafValues></_></weakClassifiers></_>
    <!-- stage 16 -->
    <_>
      <maxWeakCount>9</maxWeakCount>
      <stageThreshold>-8.3101791143417358e-01</stageThreshold>
      <weakClassifiers>
        <_>
          <internalNodes>
            0 -1 56 2070685064 -587399249 2130706166 -1895891457
            1610571647 1308622847 2113929066 154336341</internalNodes>
          <leafValues>
            -3.5474234819412231e-01 5.4459989070892334e-01</leafValues></_>
        <_>
          <internalNodes>
            0 -1 46 1790327224 1997747581 1359069190 220079114 193815847
            -223405933 1757041036 644673373</internalNodes>
          <leafValues>
            -5.7863909006118774e-01 2.9491713643074036e-01</leafValues></_>
        <_>
          <internalNodes>
            0 -1 135 -1019658342 -49261212 -369093411 1605964189
            2028212912 131312 1904937735 -1738818614</internalNodes>
          <leafValues>
            -3.9089241623878479e-01 4.1921058297157288e-01</leafValues></_>
        <_>
          <internalNodes>
            0 -1 62 1499452630 -2095379497 268868951 -1561922149
            -750480141 1480589826 -1975025540 -1899144326</internalNodes>
          <leafValues>
            -4.3228960037231445e-01 3.6892154812812805e-01</leafValues></_>
        <_>
          <internalNodes>
            0 -1 154 -2104201963 -1441455724 -528330411 -1118387824
            -2012618379 -1547270072 -1567403529 -1766150029</internalNodes>
          <leafValues>
            -4.7940587997436523e-01 3.3838927745819092e-01</leafValues></_>
        <_>
          <internalNodes>
            0 -1 111 -1243971208 -1266056591 1360593076 -1491938975
            -897038030 -1702209147 2039155450 -623985170</internalNodes>
          <leafValues>
            -4.4151657819747925e-01 3.8664084672927856e-01</leafValues></_>
        <_>
          <internalNodes>
            0 -1 78 704711516 -196976163 52121810 1192038550 542290290
            -167075157 416266623 1254490752</internalNodes>
          <leafValues>
            -5.8591663837432861e-01 3.0181619524955750e-01</leafValues></_>
        <_>
          <internalNodes>
            0 -1 10 1794867143 1679984727 -2126363492 -1220034493
            1489712487 -771554742 -1759270778 1797617683</internalNodes>
          <leafValues>
            -4.5020002126693726e-01 3.8394913077354431e-01</leafValues></_>
        <_>
          <internalNodes>
            0 -1 123 630326587 -2029383371 -1861651489 -1306918463
            -2000540937 -183842813 -401894961 -1945835275</internalNodes>
          <leafValues>
            -5.0932013988494873e-01 3.5590672492980957e-01</leafValues></_></weakClassifiers></_>
    <!-- stage 17 -->
    <_>
      <maxWeakCount>9</maxWeakCount>
      <stageThreshold>-5.1362645626068115e-01</stageThreshold>
      <weakClassifiers>
        <_>
          <internalNodes>
            0 -1 26 -823120554 -1090805770 -6161 -1343539204 368860668
            888995300 2121334600 1040227757</internalNodes>
          <leafValues>
            -3.5006973147392273e-01 5.6305670738220215e-01</leafValues></_>
        <_>
          <internalNodes>
            0 -1 127 -369361225 1177521646 -275329945 -639242369
            -2009871232 267800054 -2063413104 -773851789</internalNodes>
          <leafValues>
            -2.7176052331924438e-01 6.0765653848648071e-01</leafValues></_>
        <_>
          <internalNodes>
            0 -1 132 1310945804 -855076751 -931114667 -929922449
            -368982003 -259718518 1616964696 1600633077</internalNodes>
          <leafValues>
            -4.7297316789627075e-01 3.8662037253379822e-01</leafValues></_>
        <_>
          <internalNodes>
            0 -1 158 -1437147362 -1165950966 88637555 814272589
            -402038011 -939425787 19341 -1531024829</internalNodes>
          <leafValues>
            -4.9905899167060852e-01 3.6701881885528564e-01</leafValues></_>
        <_>
          <internalNodes>
            0 -1 99 -209763678 -784248297 185663499 269078784
            -1563787258 -1996153600 1611366511 21088845</internalNodes>
          <leafValues>
            -6.3403892517089844e-01 2.8087031841278076e-01</leafValues></_>
        <_>
          <internalNodes>
            0 -1 84 -1026341277 538182216 -1878703856 1623196063
            1611705120 -1275035488 -2013255541 565600794</internalNodes>
          <leafValues>
            -5.6741088628768921e-01 3.6415991187095642e-01</leafValues></_>
        <_>
          <internalNodes>
            0 -1 125 269108506 318869632 545395029 1695744079 -259902775
            1661280265 268437838 -381566748</internalNodes>
          <leafValues>
            -4.9194541573524475e-01 3.9530906081199646e-01</leafValues></_>
        <_>
          <internalNodes>
            0 -1 97 -264130328 -786364048 -1331393411 -1856426108
            3247236 -1417274032 -1798125651 -1819159465</internalNodes>
          <leafValues>
            -4.2670324444770813e-01 4.9628892540931702e-01</leafValues></_>
        <_>
          <internalNodes>
            0 -1 109 1400369715 -149020625 -269501130 -210442678
            545243304 -1158774732 607269515 1684525147</internalNodes>
          <leafValues>
            -3.4416219592094421e-01 5.8459365367889404e-01</leafValues></_></weakClassifiers></_>
    <!-- stage 18 -->
    <_>
      <maxWeakCount>8</maxWeakCount>
      <stageThreshold>-6.8659144639968872e-01</stageThreshold>
      <weakClassifiers>
        <_>
          <internalNodes>
            0 -1 106 -1070077182 140688140 2113640084 -2011762992
            7660561 1413817459 -2006556413 34791426</internalNodes>
          <leafValues>
            -3.3948338031768799e-01 6.0186547040939331e-01</leafValues></_>
        <_>
          <internalNodes>
            0 -1 91 -536818050 1459818501 -1467084259 -1810298755
            -1264148534 -1840904572 -1331319221 1233862734</internalNodes>
          <leafValues>
            -4.3088099360466003e-01 5.1611077785491943e-01</leafValues></_>
        <_>
          <internalNodes>
            0 -1 23 1074395226 336003073 33344 1363296338 268460097
            50331656 9998587 -1321127774</internalNodes>
          <leafValues>
            -4.7278052568435669e-01 4.8212686181068420e-01</leafValues></_>
        <_>
          <internalNodes>
            0 -1 104 -919891507 1095380548 -2002358908 151850773
            1698753780 -1876200128 -1969127256 1493937691</internalNodes>
          <leafValues>
            -4.3412441015243530e-01 5.9209311008453369e-01</leafValues></_>
        <_>
          <internalNodes>
            0 -1 96 -986346880 -96817346 -1476680139 -1973244228
            668209034 2021654396 -1631590769 -1621166129</internalNodes>
          <leafValues>
            -4.6091136336326599e-01 5.5884414911270142e-01</leafValues></_>
        <_>
          <internalNodes>
            0 -1 82 -1622295 946712429 -1114153 -403411155 2138994484
            260046815 -715129617 1593063294</internalNodes>
          <leafValues>
            -4.3232235312461853e-01 5.9207552671432495e-01</leafValues></_>
        <_>
          <internalNodes>
            0 -1 129 -1069352622 -419331584 -2012217326 1159036936
            -1056143328 1082335362 -1073741134 94880226</internalNodes>
          <leafValues>
            -5.3450131416320801e-01 4.8588168621063232e-01</leafValues></_>
        <_>
          <internalNodes>
            0 -1 115 1497711633 1420462404 1895640609 404768866
            607718668 -1912694880 -1753382487 178702442</internalNodes>
          <leafValues>
            -4.9759888648986816e-01 5.4492074251174927e-01</leafValues></_></weakClassifiers></_>
    <!-- stage 19 -->
    <_>
      <maxWeakCount>6</maxWeakCount>
      <stageThreshold>-5.7929390668869019e-01</stageThreshold>
      <weakClassifiers>
        <_>
          <internalNodes>
            0 -1 130 -1809678264 -715087939 804925088 1236855594
            610070049 2133872239 536341928 -1036513790</internalNodes>
          <leafValues>
            -2.8177776932716370e-01 7.3449277877807617e-01</leafValues></_>
        <_>
          <internalNodes>
            0 -1 19 -1056734462 2750132 611398164 572591151 242455584
            -1941485702 -733192908 -610138509</internalNodes>
          <leafValues>
            -4.3750455975532532e-01 6.9005596637725830e-01</leafValues></_>
        <_>
          <internalNodes>
            0 -1 110 -2067607404 -2045561440 683161089 -1275067328
            789704 -1402188356 -1138719481 211945920</internalNodes>
          <leafValues>
            -5.2185839414596558e-01 6.5706926584243774e-01</leafValues></_>
        <_>
          <internalNodes>
            0 -1 89 -1692877192 3149440 975195809 1209075361 1252329628
            101893792 68176996 -359709035</internalNodes>
          <leafValues>
            -4.5631304383277893e-01 7.8810662031173706e-01</leafValues></_>
        <_>
          <internalNodes>
            0 -1 105 -1066385172 -224024223 1873544311 86008104
            -1264204726 -2008843179 1885925090 -804648309</internalNodes>
          <leafValues>
            -4.7962746024131775e-01 7.6565909385681152e-01</leafValues></_>
        <_>
          <internalNodes>
            0 -1 128 1232112274 -2120672756 -1157698559 -1013969411
            542752896 -837546927 -2072968172 693312815</internalNodes>
          <leafValues>
            -5.4604369401931763e-01 6.8719929456710815e-01</leafValues></_></weakClassifiers></_></stages>
  <features>
    <_>
      <rect>
        0 0 1 1</rect></_>
    <_>
      <rect>
        0 0 1 2</rect></_>
    <_>
      <rect>
        0 0 2 1</rect></_>
    <_>
      <rect>
        0 1 1 1</rect></_>
    <_>
      <rect>
        0 1 1 2</rect></_>
    <_>
      <rect>
        0 2 1 1</rect></_>
    <_>
      <rect>
        0 2 6 7</rect></_>
    <_>
      <rect>
        0 3 1 3</rect></_>
    <_>
      <rect>
        0 4 2 2</rect></_>
    <_>
      <rect>
        0 5 1 7</rect></_>
    <_>
      <rect>
        0 5 2 5</rect></_>
    <_>
      <rect>
        0 7 1 1</rect></_>
    <_>
      <rect>
        0 7 2 2</rect></_>
    <_>
      <rect>
        0 8 1 1</rect></_>
    <_>
      <rect>
        0 9 1 2</rect></_>
    <_>
      <rect>
        0 10 1 2</rect></_>
    <_>
      <rect>
        0 10 2 4</rect></_>
    <_>
      <rect>
        0 11 1 1</rect></_>
    <_>
      <rect>
        0 11 2 6</rect></_>
    <_>
      <rect>
        0 13 4 7</rect></_>
    <_>
      <rect>
        0 14 1 2</rect></_>
    <_>
      <rect>
        0 16 1 2</rect></_>
    <_>
      <rect>
        0 16 1 3</rect></_>
    <_>
      <rect>
        0 16 2 4</rect></_>
    <_>
      <rect>
        0 18 1 3</rect></_>
    <_>
      <rect>
        0 20 6 9</rect></_>
    <_>
      <rect>
        0 21 1 3</rect></_>
    <_>
      <rect>
        0 21 2 3</rect></_>
    <_>
      <rect>
        0 22 1 4</rect></_>
    <_>
      <rect>
        0 24 2 5</rect></_>
    <_>
      <rect>
        0 25 1 1</rect></_>
    <_>
      <rect>
        0 25 2 4</rect></_>
    <_>
      <rect>
        0 25 2 7</rect></_>
    <_>
      <rect>
        0 26 2 5</rect></_>
    <_>
      <rect>
        0 30 1 1</rect></_>
    <_>
      <rect>
        0 31 1 1</rect></_>
    <_>
      <rect>
        0 32 16 5</rect></_>
    <_>
      <rect>
        0 33 1 4</rect></_>
    <_>
      <rect>
        0 34 1 1</rect></_>
    <_>
      <rect>
        0 35 2 5</rect></_>
    <_>
      <rect>
        0 36 1 2</rect></_>
    <_>
      <rect>
        0 37 1 1</rect></_>
    <_>
      <rect>
        0 40 1 1</rect></_>
    <_>
      <rect>
        0 41 3 3</rect></_>
    <_>
      <rect>
        0 43 1 1</rect></_>
    <_>
      <rect>
        0 43 2 1</rect></_>
    <_>
      <rect>
        0 44 1 1</rect></_>
    <_>
      <rect>
        0 44 1 2</rect></_>
    <_>
      <rect>
        0 46 1 1</rect></_>
    <_>
      <rect>
        0 47 1 1</rect></_>
    <_>
      <rect>
        0 47 2 1</rect></_>
    <_>
      <rect>
        1 0 1 3</rect></_>
    <_>
      <rect>
        1 0 2 1</rect></_>
    <_>
      <rect>
        1 1 4 2</rect></_>
    <_>
      <rect>
        1 3 2 2</rect></_>
    <_>
      <rect>
        1 5 1 1</rect></_>
    <_>
      <rect>
        1 6 1 1</rect></_>
    <_>
      <rect>
        1 7 1 2</rect></_>
    <_>
      <rect>
        1 15 2 3</rect></_>
    <_>
      <rect>
        1 36 2 4</rect></_>
    <_>
      <rect>
        1 38 2 3</rect></_>
    <_>
      <rect>
        1 39 1 1</rect></_>
    <_>
      <rect>
        1 39 2 3</rect></_>
    <_>
      <rect>
        1 40 1 1</rect></_>
    <_>
      <rect>
        1 40 1 3</rect></_>
    <_>
      <rect>
        1 41 3 3</rect></_>
    <_>
      <rect>
        1 42 2 2</rect></_>
    <_>
      <rect>
        1 43 1 1</rect></_>
    <_>
      <rect>
        1 43 1 2</rect></_>
    <_>
      <rect>
        1 44 2 1</rect></_>
    <_>
      <rect>
        1 45 1 1</rect></_>
    <_>
      <rect>
        1 47 1 1</rect></_>
    <_>
      <rect>
        2 0 2 1</rect></_>
    <_>
      <rect>
        2 0 2 2</rect></_>
    <_>
      <rect>
        2 4 2 1</rect></_>
    <_>
      <rect>
        2 17 2 6</rect></_>
    <_>
      <rect>
        2 47 1 1</rect></_>
    <_>
      <rect>
        3 0 1 1</rect></_>
    <_>
      <rect>
        3 1 3 2</rect></_>
    <_>
      <rect>
        3 2 1 1</rect></_>
    <_>
      <rect>
        3 3 1 1</rect></_>
    <_>
      <rect>
        3 45 1 1</rect></_>
    <_>
      <rect>
        4 0 3 1</rect></_>
    <_>
      <rect>
        4 23 15 9</rect></_>
    <_>
      <rect>
        4 40 3 2</rect></_>
    <_>
      <rect>
        4 47 1 1</rect></_>
    <_>
      <rect>
        5 0 4 1</rect></_>
    <_>
      <rect>
        5 0 4 2</rect></_>
    <_>
      <rect>
        5 10 12 11</rect></_>
    <_>
      <rect>
        6 3 10 9</rect></_>
    <_>
      <rect>
        6 5 12 6</rect></_>
    <_>
      <rect>
        6 10 9 8</rect></_>
    <_>
      <rect>
        6 47 2 1</rect></_>
    <_>
      <rect>
        7 4 12 7</rect></_>
    <_>
      <rect>
        7 10 12 9</rect></_>
    <_>
      <rect>
        7 22 12 9</rect></_>
    <_>
      <rect>
        7 47 2 1</rect></_>
    <_>
      <rect>
        8 3 10 5</rect></_>
    <_>
      <rect>
        10 14 11 6</rect></_>
    <_>
      <rect>
        11 6 9 10</rect></_>
    <_>
      <rect>
        13 11 8 7</rect></_>
    <_>
      <rect>
        13 11 8 8</rect></_>
    <_>
      <rect>
        14 10 6 10</rect></_>
    <_>
      <rect>
        16 0 6 3</rect></_>
    <_>
      <rect>
        16 34 10 5</rect></_>
    <_>
      <rect>
        18 2 9 5</rect></_>
    <_>
      <rect>
        18 9 4 3</rect></_>
    <_>
      <rect>
        18 12 6 8</rect></_>
    <_>
      <rect>
        18 47 3 1</rect></_>
    <_>
      <rect>
        19 21 10 8</rect></_>
    <_>
      <rect>
        21 17 7 5</rect></_>
    <_>
      <rect>
        22 0 2 1</rect></_>
    <_>
      <rect>
        23 1 5 2</rect></_>
    <_>
      <rect>
        24 0 1 1</rect></_>
    <_>
      <rect>
        24 1 3 2</rect></_>
    <_>
      <rect>
        24 13 4 6</rect></_>
    <_>
      <rect>
        26 0 8 3</rect></_>
    <_>
      <rect>
        27 31 4 5</rect></_>
    <_>
      <rect>
        29 47 3 1</rect></_>
    <_>
      <rect>
        30 1 2 1</rect></_>
    <_>
      <rect>
        31 0 2 2</rect></_>
    <_>
      <rect>
        31 0 5 2</rect></_>
    <_>
      <rect>
        33 47 1 1</rect></_>
    <_>
      <rect>
        34 47 1 1</rect></_>
    <_>
      <rect>
        35 0 1 1</rect></_>
    <_>
      <rect>
        35 1 2 1</rect></_>
    <_>
      <rect>
        38 0 4 1</rect></_>
    <_>
      <rect>
        38 28 4 7</rect></_>
    <_>
      <rect>
        38 35 4 3</rect></_>
    <_>
      <rect>
        39 38 3 4</rect></_>
    <_>
      <rect>
        40 0 2 2</rect></_>
    <_>
      <rect>
        40 47 2 1</rect></_>
    <_>
      <rect>
        41 41 3 3</rect></_>
    <_>
      <rect>
        41 44 3 2</rect></_>
    <_>
      <rect>
        41 45 1 1</rect></_>
    <_>
      <rect>
        42 3 2 2</rect></_>
    <_>
      <rect>
        43 24 2 4</rect></_>
    <_>
      <rect>
        43 24 2 8</rect></_>
    <_>
      <rect>
        44 0 2 2</rect></_>
    <_>
      <rect>
        44 1 2 2</rect></_>
    <_>
      <rect>
        44 1 2 4</rect></_>
    <_>
      <rect>
        44 41 2 3</rect></_>
    <_>
      <rect>
        44 44 2 2</rect></_>
    <_>
      <rect>
        45 1 1 2</rect></_>
    <_>
      <rect>
        45 43 1 1</rect></_>
    <_>
      <rect>
        46 32 1 3</rect></_>
    <_>
      <rect>
        46 43 1 2</rect></_>
    <_>
      <rect>
        46 44 1 2</rect></_>
    <_>
      <rect>
        46 47 1 1</rect></_>
    <_>
      <rect>
        47 1 1 2</rect></_>
    <_>
      <rect>
        47 2 1 1</rect></_>
    <_>
      <rect>
        47 5 1 1</rect></_>
    <_>
      <rect>
        47 7 1 1</rect></_>
    <_>
      <rect>
        47 7 1 6</rect></_>
    <_>
      <rect>
        47 15 1 1</rect></_>
    <_>
      <rect>
        47 21 1 5</rect></_>
    <_>
      <rect>
        47 23 1 2</rect></_>
    <_>
      <rect>
        47 34 1 1</rect></_>
    <_>
      <rect>
        47 35 1 2</rect></_>
    <_>
      <rect>
        47 46 1 1</rect></_>
    <_>
      <rect>
        47 47 1 1</rect></_></features></cascade>
</opencv_storage>
