<?xml version="1.0"?>
<opencv_storage>
<stage7>
  <maxWeakCount>9</maxWeakCount>
  <stageThreshold>-8.4754741191864014e-01</stageThreshold>
  <weakClassifiers>
    <_>
      <internalNodes>
        0 -1 166463 756048906 652185631 1728172518 -1101347018
        -842059768 462291091 947014517 75279092</internalNodes>
      <leafValues>
        -7.4021911621093750e-01 4.6887966990470886e-01</leafValues></_>
    <_>
      <internalNodes>
        0 -1 30203 1943786204 -80253833 31965435 1775595039 -210240514
        -1115758865 -12256805 1564868431</internalNodes>
      <leafValues>
        -3.4546533226966858e-01 4.4816365838050842e-01</leafValues></_>
    <_>
      <internalNodes>
        0 -1 7312 -327702981 314400759 -272830722 800522230 -1744879815
        -2046857362 1937137658 -104956423</internalNodes>
      <leafValues>
        -3.6970549821853638e-01 4.3930980563163757e-01</leafValues></_>
    <_>
      <internalNodes>
        0 -1 143273 -1623663717 -170185298 -1100251137 1574905917
        998235291 -1149650241 -734492437 -39301965</internalNodes>
      <leafValues>
        -2.9443445801734924e-01 5.7514971494674683e-01</leafValues></_>
    <_>
      <internalNodes>
        0 -1 166348 -1344457489 -1482781156 479638014 -1229496555
        48772463 -787806077 -1026754595 -1890692569</internalNodes>
      <leafValues>
        -4.7172451019287109e-01 3.8434070348739624e-01</leafValues></_>
    <_>
      <internalNodes>
        0 -1 6513 -827069381 298423131 1503255694 -137637381 -1171867541
        -1455474581 -1664497588 -25201673</internalNodes>
      <leafValues>
        -4.1662472486495972e-01 4.3951946496963501e-01</leafValues></_>
    <_>
      <internalNodes>
        0 -1 5616 -1860184013 -325238440 1896221551 1873566215
        -706635009 2112063661 -720477728 1148773828</internalNodes>
      <leafValues>
        -5.5469018220901489e-01 3.3944305777549744e-01</leafValues></_>
    <_>
      <internalNodes>
        0 -1 165221 -1380235784 87732484 285364548 1976094813 361584837
        -843603830 1254578411 1435962557</internalNodes>
      <leafValues>
        -5.6577712297439575e-01 3.2082125544548035e-01</leafValues></_>
    <_>
      <internalNodes>
        0 -1 2369 -95039631 -1877983366 -802041304 403561305 997960598
        1401129643 1883988244 343784303</internalNodes>
      <leafValues>
        -5.1837909221649170e-01 3.5187971591949463e-01</leafValues></_></weakClassifiers></stage7>
</opencv_storage>
