<?xml version="1.0"?>
<opencv_storage>
<stage13>
  <maxWeakCount>9</maxWeakCount>
  <stageThreshold>-6.8788653612136841e-01</stageThreshold>
  <weakClassifiers>
    <_>
      <internalNodes>
        0 -1 770 417098636 607813699 -1052668464 851473746 1346469231
        -368607099 -655466380 149699061</internalNodes>
      <leafValues>
        -7.5409835577011108e-01 4.6365422010421753e-01</leafValues></_>
    <_>
      <internalNodes>
        0 -1 129042 -1061669615 995864221 -1114229 1031610125
        -1135624271 -10092613 721219352 -129341254</internalNodes>
      <leafValues>
        -3.2898262143135071e-01 4.2608773708343506e-01</leafValues></_>
    <_>
      <internalNodes>
        0 -1 5977 -587343639 -1051638708 -1308426211 949963672
        1326361361 2076188873 1909642698 1071495466</internalNodes>
      <leafValues>
        -3.7774267792701721e-01 4.1343718767166138e-01</leafValues></_>
    <_>
      <internalNodes>
        0 -1 1 -286327447 -1090609172 -176300087 1064302564 -142876678
        -1073741825 -1616054914 -2017728521</internalNodes>
      <leafValues>
        -3.3404514193534851e-01 4.8793908953666687e-01</leafValues></_>
    <_>
      <internalNodes>
        0 -1 164223 699920997 -965046258 -799682281 605470915 17073020
        2064662683 539050122 1874704135</internalNodes>
      <leafValues>
        -4.9443805217742920e-01 3.5066264867782593e-01</leafValues></_>
    <_>
      <internalNodes>
        0 -1 19584 -2089341137 2103775639 -312897429 -224470352
        696327996 -848637630 1485456107 -1358890731</internalNodes>
      <leafValues>
        -4.7700655460357666e-01 3.5879787802696228e-01</leafValues></_>
    <_>
      <internalNodes>
        0 -1 161566 -1879126165 1877966718 1459613303 -234881797 -2414
        -134283396 -1778516114 -1611172702</internalNodes>
      <leafValues>
        -3.7675762176513672e-01 4.6534198522567749e-01</leafValues></_>
    <_>
      <internalNodes>
        0 -1 3537 1602540658 -1748706525 269865419 1714936774 -250677135
        1695459713 1515578216 870478663</internalNodes>
      <leafValues>
        -5.7067286968231201e-01 3.3226472139358521e-01</leafValues></_>
    <_>
      <internalNodes>
        0 -1 13040 -253805782 588677261 -2126409519 1884987855 897699963
        1671528473 -2011673388 1288009942</internalNodes>
      <leafValues>
        -6.4108306169509888e-01 2.6789072155952454e-01</leafValues></_></weakClassifiers></stage13>
</opencv_storage>
