<?xml version="1.0"?>
<opencv_storage>
<stage16>
  <maxWeakCount>9</maxWeakCount>
  <stageThreshold>-8.3101791143417358e-01</stageThreshold>
  <weakClassifiers>
    <_>
      <internalNodes>
        0 -1 8016 2070685064 -587399249 2130706166 -1895891457
        1610571647 1308622847 2113929066 154336341</internalNodes>
      <leafValues>
        -3.5474234819412231e-01 5.4459989070892334e-01</leafValues></_>
    <_>
      <internalNodes>
        0 -1 6448 1790327224 1997747581 1359069190 220079114 193815847
        -223405933 1757041036 644673373</internalNodes>
      <leafValues>
        -5.7863909006118774e-01 2.9491713643074036e-01</leafValues></_>
    <_>
      <internalNodes>
        0 -1 162904 -1019658342 -49261212 -369093411 1605964189
        2028212912 131312 1904937735 -1738818614</internalNodes>
      <leafValues>
        -3.9089241623878479e-01 4.1921058297157288e-01</leafValues></_>
    <_>
      <internalNodes>
        0 -1 12773 1499452630 -2095379497 268868951 -1561922149
        -750480141 1480589826 -1975025540 -1899144326</internalNodes>
      <leafValues>
        -4.3228960037231445e-01 3.6892154812812805e-01</leafValues></_>
    <_>
      <internalNodes>
        0 -1 166266 -2104201963 -1441455724 -528330411 -1118387824
        -2012618379 -1547270072 -1567403529 -1766150029</internalNodes>
      <leafValues>
        -4.7940587997436523e-01 3.3838927745819092e-01</leafValues></_>
    <_>
      <internalNodes>
        0 -1 115072 -1243971208 -1266056591 1360593076 -1491938975
        -897038030 -1702209147 2039155450 -623985170</internalNodes>
      <leafValues>
        -4.4151657819747925e-01 3.8664084672927856e-01</leafValues></_>
    <_>
      <internalNodes>
        0 -1 19857 704711516 -196976163 52121810 1192038550 542290290
        -167075157 416266623 1254490752</internalNodes>
      <leafValues>
        -5.8591663837432861e-01 3.0181619524955750e-01</leafValues></_>
    <_>
      <internalNodes>
        0 -1 1267 1794867143 1679984727 -2126363492 -1220034493
        1489712487 -771554742 -1759270778 1797617683</internalNodes>
      <leafValues>
        -4.5020002126693726e-01 3.8394913077354431e-01</leafValues></_>
    <_>
      <internalNodes>
        0 -1 152179 630326587 -2029383371 -1861651489 -1306918463
        -2000540937 -183842813 -401894961 -1945835275</internalNodes>
      <leafValues>
        -5.0932013988494873e-01 3.5590672492980957e-01</leafValues></_></weakClassifiers></stage16>
</opencv_storage>
