<?xml version="1.0"?>
<opencv_storage>
<stage12>
  <maxWeakCount>9</maxWeakCount>
  <stageThreshold>-7.5626945495605469e-01</stageThreshold>
  <weakClassifiers>
    <_>
      <internalNodes>
        0 -1 6449 734289185 441501868 1360118143 -1332422388 -804785919
        1938571651 580569466 12070524</internalNodes>
      <leafValues>
        -6.6998577117919922e-01 4.7448468208312988e-01</leafValues></_>
    <_>
      <internalNodes>
        0 -1 20064 1725938464 739506759 -804859834 -1360374817
        2039705653 1531643931 2139810132 71139061</internalNodes>
      <leafValues>
        -7.3007047176361084e-01 2.0980884134769440e-01</leafValues></_>
    <_>
      <internalNodes>
        0 -1 2576 -352668327 1063518063 -1090715812 1060863847
        -411697793 1920466943 -486541318 -1059332249</internalNodes>
      <leafValues>
        -3.4856092929840088e-01 4.3306037783622742e-01</leafValues></_>
    <_>
      <internalNodes>
        0 -1 598 248958711 -1988334217 -510396557 -288733486 -1366105117
        1270536419 1597223287 -818457742</internalNodes>
      <leafValues>
        -3.8381391763687134e-01 3.8875290751457214e-01</leafValues></_>
    <_>
      <internalNodes>
        0 -1 31873 -1323356483 2102585690 -1852784261 -908194810
        1896495343 730791978 831222213 1576391837</internalNodes>
      <leafValues>
        -4.2568626999855042e-01 3.6683416366577148e-01</leafValues></_>
    <_>
      <internalNodes>
        0 -1 5888 -1257769779 1817078247 1360365031 -1112375897
        -1064621911 -502578457 -1888505353 2063199217</internalNodes>
      <leafValues>
        -4.5012703537940979e-01 3.4950301051139832e-01</leafValues></_>
    <_>
      <internalNodes>
        0 -1 6530 1686458867 -67448689 1346539904 124606343 -536133623
        -1165458909 434819760 1965805950</internalNodes>
      <leafValues>
        -4.2137613892555237e-01 4.1399213671684265e-01</leafValues></_>
    <_>
      <internalNodes>
        0 -1 43643 -1378545181 285964574 295293018 844858917 983761365
        1351720971 168478971 -18027613</internalNodes>
      <leafValues>
        -4.3896523118019104e-01 4.1175758838653564e-01</leafValues></_>
    <_>
      <internalNodes>
        0 -1 4379 402642763 -1368543633 921694898 1158624959 -1342343412
        -1644298242 1677063089 -745710661</internalNodes>
      <leafValues>
        -3.8597232103347778e-01 4.4709131121635437e-01</leafValues></_></weakClassifiers></stage12>
</opencv_storage>
