<?xml version="1.0"?>
<opencv_storage>
<stage17>
  <maxWeakCount>9</maxWeakCount>
  <stageThreshold>-5.1362645626068115e-01</stageThreshold>
  <weakClassifiers>
    <_>
      <internalNodes>
        0 -1 4370 -823120554 -1090805770 -6161 -1343539204 368860668
        888995300 2121334600 1040227757</internalNodes>
      <leafValues>
        -3.5006973147392273e-01 5.6305670738220215e-01</leafValues></_>
    <_>
      <internalNodes>
        0 -1 158839 -369361225 1177521646 -275329945 -639242369
        -2009871232 267800054 -2063413104 -773851789</internalNodes>
      <leafValues>
        -2.7176052331924438e-01 6.0765653848648071e-01</leafValues></_>
    <_>
      <internalNodes>
        0 -1 162764 1310945804 -855076751 -931114667 -929922449
        -368982003 -259718518 1616964696 1600633077</internalNodes>
      <leafValues>
        -4.7297316789627075e-01 3.8662037253379822e-01</leafValues></_>
    <_>
      <internalNodes>
        0 -1 166430 -1437147362 -1165950966 88637555 814272589
        -402038011 -939425787 19341 -1531024829</internalNodes>
      <leafValues>
        -4.9905899167060852e-01 3.6701881885528564e-01</leafValues></_>
    <_>
      <internalNodes>
        0 -1 67018 -209763678 -784248297 185663499 269078784 -1563787258
        -1996153600 1611366511 21088845</internalNodes>
      <leafValues>
        -6.3403892517089844e-01 2.8087031841278076e-01</leafValues></_>
    <_>
      <internalNodes>
        0 -1 31606 -1026341277 538182216 -1878703856 1623196063
        1611705120 -1275035488 -2013255541 565600794</internalNodes>
      <leafValues>
        -5.6741088628768921e-01 3.6415991187095642e-01</leafValues></_>
    <_>
      <internalNodes>
        0 -1 152280 269108506 318869632 545395029 1695744079 -259902775
        1661280265 268437838 -381566748</internalNodes>
      <leafValues>
        -4.9194541573524475e-01 3.9530906081199646e-01</leafValues></_>
    <_>
      <internalNodes>
        0 -1 50179 -264130328 -786364048 -1331393411 -1856426108 3247236
        -1417274032 -1798125651 -1819159465</internalNodes>
      <leafValues>
        -4.2670324444770813e-01 4.9628892540931702e-01</leafValues></_>
    <_>
      <internalNodes>
        0 -1 106042 1400369715 -149020625 -269501130 -210442678
        545243304 -1158774732 607269515 1684525147</internalNodes>
      <leafValues>
        -3.4416219592094421e-01 5.8459365367889404e-01</leafValues></_></weakClassifiers></stage17>
</opencv_storage>
