<?xml version="1.0"?>
<opencv_storage>
<stage18>
  <maxWeakCount>8</maxWeakCount>
  <stageThreshold>-6.8659144639968872e-01</stageThreshold>
  <weakClassifiers>
    <_>
      <internalNodes>
        0 -1 100535 -1070077182 140688140 2113640084 -2011762992 7660561
        1413817459 -2006556413 34791426</internalNodes>
      <leafValues>
        -3.3948338031768799e-01 6.0186547040939331e-01</leafValues></_>
    <_>
      <internalNodes>
        0 -1 40127 -536818050 1459818501 -1467084259 -1810298755
        -1264148534 -1840904572 -1331319221 1233862734</internalNodes>
      <leafValues>
        -4.3088099360466003e-01 5.1611077785491943e-01</leafValues></_>
    <_>
      <internalNodes>
        0 -1 3550 1074395226 336003073 33344 1363296338 268460097
        50331656 9998587 -1321127774</internalNodes>
      <leafValues>
        -4.7278052568435669e-01 4.8212686181068420e-01</leafValues></_>
    <_>
      <internalNodes>
        0 -1 94265 -919891507 1095380548 -2002358908 151850773
        1698753780 -1876200128 -1969127256 1493937691</internalNodes>
      <leafValues>
        -4.3412441015243530e-01 5.9209311008453369e-01</leafValues></_>
    <_>
      <internalNodes>
        0 -1 49355 -986346880 -96817346 -1476680139 -1973244228
        668209034 2021654396 -1631590769 -1621166129</internalNodes>
      <leafValues>
        -4.6091136336326599e-01 5.5884414911270142e-01</leafValues></_>
    <_>
      <internalNodes>
        0 -1 25736 -1622295 946712429 -1114153 -403411155 2138994484
        260046815 -715129617 1593063294</internalNodes>
      <leafValues>
        -4.3232235312461853e-01 5.9207552671432495e-01</leafValues></_>
    <_>
      <internalNodes>
        0 -1 160289 -1069352622 -419331584 -2012217326 1159036936
        -1056143328 1082335362 -1073741134 94880226</internalNodes>
      <leafValues>
        -5.3450131416320801e-01 4.8588168621063232e-01</leafValues></_>
    <_>
      <internalNodes>
        0 -1 123929 1497711633 1420462404 1895640609 404768866 607718668
        -1912694880 -1753382487 178702442</internalNodes>
      <leafValues>
        -4.9759888648986816e-01 5.4492074251174927e-01</leafValues></_></weakClassifiers></stage18>
</opencv_storage>
