<?xml version="1.0"?>
<opencv_storage>
<stage9>
  <maxWeakCount>9</maxWeakCount>
  <stageThreshold>-6.8281233310699463e-01</stageThreshold>
  <weakClassifiers>
    <_>
      <internalNodes>
        0 -1 6416 -1376899804 775073567 -717125158 2090527639 2040355553
        1250525202 1208682852 138420188</internalNodes>
      <leafValues>
        -6.5034967660903931e-01 4.7442325949668884e-01</leafValues></_>
    <_>
      <internalNodes>
        0 -1 19568 -411886545 882688983 -1788569461 1006505991
        -608623819 -380794085 -979669424 2114640743</internalNodes>
      <leafValues>
        -4.6234780550003052e-01 3.2317414879798889e-01</leafValues></_>
    <_>
      <internalNodes>
        0 -1 122400 -241692 -1094715234 -137020236 1072737526 -105492526
        -275911291 -1445927688 -12935425</internalNodes>
      <leafValues>
        -3.5847294330596924e-01 4.6095666289329529e-01</leafValues></_>
    <_>
      <internalNodes>
        0 -1 16784 -843585157 -282400905 -1082131107 -2066420289
        1794463089 -1619345423 -588067339 -233317509</internalNodes>
      <leafValues>
        -3.1501898169517517e-01 4.9086353182792664e-01</leafValues></_>
    <_>
      <internalNodes>
        0 -1 166052 1722526226 -835622638 -788522548 -15432785 453912249
        -97943064 -644875928 2129806207</internalNodes>
      <leafValues>
        -5.1559793949127197e-01 2.9885554313659668e-01</leafValues></_>
    <_>
      <internalNodes>
        0 -1 134671 -759573420 -1152121627 707819801 839087068 -48676523
        -100987123 -1954299971 -1084236291</internalNodes>
      <leafValues>
        -3.7863394618034363e-01 4.4915968179702759e-01</leafValues></_>
    <_>
      <internalNodes>
        0 -1 31809 -811946242 1189074619 -1048081613 -1230715086
        -894893445 -1416887669 -1330990969 -524288347</internalNodes>
      <leafValues>
        -4.4559070467948914e-01 3.8109362125396729e-01</leafValues></_>
    <_>
      <internalNodes>
        0 -1 4928 -1625812105 -1886760633 -653812322 2131088679
        1234427643 1135316195 -712379516 1688764901</internalNodes>
      <leafValues>
        -5.3956711292266846e-01 3.0779817700386047e-01</leafValues></_>
    <_>
      <internalNodes>
        0 -1 166073 -426285808 -87300013 -2130640386 396016203
        1372318165 -896871806 2139875909 -1803281545</internalNodes>
      <leafValues>
        -5.5284029245376587e-01 3.4762209653854370e-01</leafValues></_></weakClassifiers></stage9>
</opencv_storage>
