<?xml version="1.0"?>
<opencv_storage>
<stage2>
  <maxWeakCount>8</maxWeakCount>
  <stageThreshold>-8.4325236082077026e-01</stageThreshold>
  <weakClassifiers>
    <_>
      <internalNodes>
        0 -1 0 965753578 -1505775335 -1316907336 719770931 1460370017
        706955389 -1545811116 1626629556</internalNodes>
      <leafValues>
        -8.7671232223510742e-01 4.7146207094192505e-01</leafValues></_>
    <_>
      <internalNodes>
        0 -1 100951 -44704368 -712555236 1133707539 -247131847
        -1272804434 -528416612 211692351 1054818111</internalNodes>
      <leafValues>
        -4.5648983120918274e-01 3.9194986224174500e-01</leafValues></_>
    <_>
      <internalNodes>
        0 -1 143225 -1078214854 -70192547 361486494 -1778760942
        1251017384 2091485193 -1689554264 -1124590372</internalNodes>
      <leafValues>
        -5.0061959028244019e-01 3.3090409636497498e-01</leafValues></_>
    <_>
      <internalNodes>
        0 -1 166163 -389286601 -280399296 -971834914 -300744122
        -1048096346 2073494154 -1567468684 -38347788</internalNodes>
      <leafValues>
        -4.3238615989685059e-01 3.9094653725624084e-01</leafValues></_>
    <_>
      <internalNodes>
        0 -1 8241 -831746175 1616727433 -1064216201 -1500048550
        723470569 1124837967 -778405898 -1342220392</internalNodes>
      <leafValues>
        -4.3293818831443787e-01 4.0406379103660583e-01</leafValues></_>
    <_>
      <internalNodes>
        0 -1 6288 798694233 247353566 -183922531 1619226747 958262063
        1636678046 -1153191577 -1210704011</internalNodes>
      <leafValues>
        -5.9138524532318115e-01 2.9672682285308838e-01</leafValues></_>
    <_>
      <internalNodes>
        0 -1 6344 2012528633 1568014318 -1342196033 635737970 2138537790
        -402882561 1862217711 -559196186</internalNodes>
      <leafValues>
        -3.7855860590934753e-01 4.7519111633300781e-01</leafValues></_>
    <_>
      <internalNodes>
        0 -1 13072 -606270034 -673541569 -780057210 -1327867814
        684214523 291195008 -1597802320 1843659136</internalNodes>
      <leafValues>
        -6.0275638103485107e-01 3.0031546950340271e-01</leafValues></_></weakClassifiers></stage2>
</opencv_storage>
