<?xml version="1.0"?>
<opencv_storage>
<stage10>
  <maxWeakCount>9</maxWeakCount>
  <stageThreshold>-7.6273822784423828e-01</stageThreshold>
  <weakClassifiers>
    <_>
      <internalNodes>
        0 -1 257 1015590717 1289045258 1904858428 -1094535872 -209636596
        -1987919846 -40680589 66869552</internalNodes>
      <leafValues>
        -5.4965358972549438e-01 4.9151840806007385e-01</leafValues></_>
    <_>
      <internalNodes>
        0 -1 12710 -623527544 551987455 -82449 -537236772 -680857738
        2137915262 -1107361796 -1646006029</internalNodes>
      <leafValues>
        -3.7316319346427917e-01 4.0378037095069885e-01</leafValues></_>
    <_>
      <internalNodes>
        0 -1 1254 -1080078091 1913671826 1073840258 692901063 30395067
        1795342409 1514351217 -2045454139</internalNodes>
      <leafValues>
        -5.1047503948211670e-01 3.1675055623054504e-01</leafValues></_>
    <_>
      <internalNodes>
        0 -1 164441 -1644189779 -780516664 -180300906 524783311
        -391395092 -78601856 -1142908424 2011779643</internalNodes>
      <leafValues>
        -3.8954189419746399e-01 3.9476010203361511e-01</leafValues></_>
    <_>
      <internalNodes>
        0 -1 12768 -169889952 -1517293371 465490925 1956798870 6744549
        1201165467 -1728187920 -17457826</internalNodes>
      <leafValues>
        -4.6540242433547974e-01 3.4453651309013367e-01</leafValues></_>
    <_>
      <internalNodes>
        0 -1 166050 399568690 -1429089134 -1321050441 1402327440
        948338345 143409153 1388935415 1844264260</internalNodes>
      <leafValues>
        -5.9316694736480713e-01 2.7250817418098450e-01</leafValues></_>
    <_>
      <internalNodes>
        0 -1 5520 -1354898055 2046263166 -539492906 -27721957 -33652772
        1503510005 -1265632337 -1342324761</internalNodes>
      <leafValues>
        -3.4800651669502258e-01 4.9744591116905212e-01</leafValues></_>
    <_>
      <internalNodes>
        0 -1 2384 -526665602 -804467911 1359688465 -501497781 1771039018
        1233315532 -896924345 -588647178</internalNodes>
      <leafValues>
        -4.6099674701690674e-01 3.7834557890892029e-01</leafValues></_>
    <_>
      <internalNodes>
        0 -1 122561 -1206888001 -174767915 554785691 -1718091498
        990322588 -74707933 260975512 959053985</internalNodes>
      <leafValues>
        -4.3746560811996460e-01 4.0660163760185242e-01</leafValues></_></weakClassifiers></stage10>
</opencv_storage>
