<?xml version="1.0"?>
<opencv_storage>
<stage0>
  <maxWeakCount>6</maxWeakCount>
  <stageThreshold>-5.1782530546188354e-01</stageThreshold>
  <weakClassifiers>
    <_>
      <internalNodes>
        0 -1 77918 -21380950 -4505726 733939747 657657625 -291860790
        -305791436 690226603 256581551</internalNodes>
      <leafValues>
        -4.0618336200714111e-01 6.9612967967987061e-01</leafValues></_>
    <_>
      <internalNodes>
        0 -1 44709 -804132726 1464930318 46201 1434779973 344097678
        17441921 1082132623 1598659407</internalNodes>
      <leafValues>
        -4.5086169242858887e-01 5.0051194429397583e-01</leafValues></_>
    <_>
      <internalNodes>
        0 -1 6512 261433145 805298825 -577389682 -1149410897 -918851185
        -1492467573 1052457397 108816855</internalNodes>
      <leafValues>
        -6.7817175388336182e-01 3.0541265010833740e-01</leafValues></_>
    <_>
      <internalNodes>
        0 -1 20304 -1615119438 -419450496 1359055118 -438596295
        2142996855 1860122776 1932634662 -1371346124</internalNodes>
      <leafValues>
        -5.5272448062896729e-01 3.8242420554161072e-01</leafValues></_>
    <_>
      <internalNodes>
        0 -1 6513 1284492187 1405718617 1494288670 315492241 437315789
        -1471461349 -1727493947 -1771868174</internalNodes>
      <leafValues>
        -5.3410005569458008e-01 3.7663927674293518e-01</leafValues></_>
    <_>
      <internalNodes>
        0 -1 12818 -1227721136 538333185 1560441117 -1333870197
        2056217769 -108129647 1015046972 -423877253</internalNodes>
      <leafValues>
        -6.7771267890930176e-01 2.5832802057266235e-01</leafValues></_></weakClassifiers></stage0>
</opencv_storage>
