<?xml version="1.0"?>
<opencv_storage>
<stage15>
  <maxWeakCount>9</maxWeakCount>
  <stageThreshold>-7.2572487592697144e-01</stageThreshold>
  <weakClassifiers>
    <_>
      <internalNodes>
        0 -1 166134 211630938 -1886924793 -1240312578 775197528
        1878752885 195788811 -318093004 30420853</internalNodes>
      <leafValues>
        -7.0793652534484863e-01 4.6272188425064087e-01</leafValues></_>
    <_>
      <internalNodes>
        0 -1 14079 555433246 -185054187 1091165085 1577031701 -107260298
        1963190296 -656201204 -824458395</internalNodes>
      <leafValues>
        -3.8574272394180298e-01 3.7931489944458008e-01</leafValues></_>
    <_>
      <internalNodes>
        0 -1 6418 420918733 504874188 285332683 1026081146 -1142316776
        462848161 730434141 855628193</internalNodes>
      <leafValues>
        -4.4244596362113953e-01 3.4765696525573730e-01</leafValues></_>
    <_>
      <internalNodes>
        0 -1 47711 -779890080 -604028310 77989888 -515811036 -550841428
        -638920479 849867771 122945107</internalNodes>
      <leafValues>
        -5.0938892364501953e-01 3.0076640844345093e-01</leafValues></_>
    <_>
      <internalNodes>
        0 -1 4939 -388080882 131089309 807731481 -745287552 -1073622599
        -2129491949 -234180457 -7617846</internalNodes>
      <leafValues>
        -3.7224289774894714e-01 4.0797117352485657e-01</leafValues></_>
    <_>
      <internalNodes>
        0 -1 152184 -1621494466 -1273249425 -922643494 2008754550
        1506523376 295862687 -224547097 784711157</internalNodes>
      <leafValues>
        -5.0646752119064331e-01 3.2478895783424377e-01</leafValues></_>
    <_>
      <internalNodes>
        0 -1 1727 1211282342 -2049068753 1809127429 -1496317577
        -1945808389 -1685487487 -777842525 240796544</internalNodes>
      <leafValues>
        -5.5824655294418335e-01 3.0706363916397095e-01</leafValues></_>
    <_>
      <internalNodes>
        0 -1 90250 -2118421001 1030293396 1052515899 -1613132168
        499478265 -3168274 64312831 -1349630931</internalNodes>
      <leafValues>
        -3.7453296780586243e-01 4.7470682859420776e-01</leafValues></_>
    <_>
      <internalNodes>
        0 -1 12978 -1867525750 2093928851 680643030 1875481688
        -1019115283 269025410 -1130270354 -1144155115</internalNodes>
      <leafValues>
        -4.1590747237205505e-01 4.1276496648788452e-01</leafValues></_></weakClassifiers></stage15>
</opencv_storage>
