<?xml version="1.0"?>
<opencv_storage>
<stage14>
  <maxWeakCount>8</maxWeakCount>
  <stageThreshold>-6.4971935749053955e-01</stageThreshold>
  <weakClassifiers>
    <_>
      <internalNodes>
        0 -1 165233 1860052740 -967052919 -711470274 -1973776340
        818732825 9120643 1460093553 779436780</internalNodes>
      <leafValues>
        -5.7918053865432739e-01 5.0510734319686890e-01</leafValues></_>
    <_>
      <internalNodes>
        0 -1 12945 2084845844 1205470170 -427765348 680924294 -402490943
        1380094090 -251411586 -2047409735</internalNodes>
      <leafValues>
        -5.4791104793548584e-01 3.0335962772369385e-01</leafValues></_>
    <_>
      <internalNodes>
        0 -1 6833 549605247 -871496765 1426280988 37820465 1344927220
        -308704326 63515455 -303871531</internalNodes>
      <leafValues>
        -4.4056025147438049e-01 3.6842733621597290e-01</leafValues></_>
    <_>
      <internalNodes>
        0 -1 162783 -1367997683 -1424817779 -1860806379 -95910689
        1435524459 1577287819 -1125176495 -286328004</internalNodes>
      <leafValues>
        -4.9591153860092163e-01 3.0566364526748657e-01</leafValues></_>
    <_>
      <internalNodes>
        0 -1 6049 734854000 211735741 -651966368 -331742905 8530417
        1913369818 1382709333 -9018930</internalNodes>
      <leafValues>
        -5.6630891561508179e-01 2.8220403194427490e-01</leafValues></_>
    <_>
      <internalNodes>
        0 -1 164219 -188764867 120123335 -14287171 -776937601 1626451224
        154709448 611918978 -148180269</internalNodes>
      <leafValues>
        -3.8874307274818420e-01 4.5091062784194946e-01</leafValues></_>
    <_>
      <internalNodes>
        0 -1 2161 183650673 819786839 359793304 -1212166952 -779136307
        2064642767 -410212097 790720883</internalNodes>
      <leafValues>
        -5.4284417629241943e-01 3.0694052577018738e-01</leafValues></_>
    <_>
      <internalNodes>
        0 -1 4942 -142896427 1216229364 805301967 -104076546 -982336836
        754728947 2029748058 1369177854</internalNodes>
      <leafValues>
        -3.9712023735046387e-01 4.3906408548355103e-01</leafValues></_></weakClassifiers></stage14>
</opencv_storage>
