<?xml version="1.0"?>
<opencv_storage>
<stage8>
  <maxWeakCount>8</maxWeakCount>
  <stageThreshold>-5.0591456890106201e-01</stageThreshold>
  <weakClassifiers>
    <_>
      <internalNodes>
        0 -1 12915 1727282588 113180094 2044624633 650428415 -8948362
        1694203903 -1661600453 187203158</internalNodes>
      <leafValues>
        -4.5487365126609802e-01 5.2351915836334229e-01</leafValues></_>
    <_>
      <internalNodes>
        0 -1 166088 -1400945282 -1097730 -196754 1005387007 -1241514457
        -134885378 364634109 -37814916</internalNodes>
      <leafValues>
        -3.5896205902099609e-01 4.6358153223991394e-01</leafValues></_>
    <_>
      <internalNodes>
        0 -1 4266 -286339073 -17108014 -17399813 614757418 6542697
        -22563715 511501309 -286262017</internalNodes>
      <leafValues>
        -3.3079844713211060e-01 4.9569267034530640e-01</leafValues></_>
    <_>
      <internalNodes>
        0 -1 157536 823487925 1721073984 1360101523 -1300217702
        678112924 1368950987 563076345 -1372886664</internalNodes>
      <leafValues>
        -4.0346860885620117e-01 4.0062308311462402e-01</leafValues></_>
    <_>
      <internalNodes>
        0 -1 16 -1550556097 -1363167783 1947957686 -1365977027 44295271
        1931057249 1628121575 -1892287496</internalNodes>
      <leafValues>
        -6.1553341150283813e-01 2.8824213147163391e-01</leafValues></_>
    <_>
      <internalNodes>
        0 -1 1024 -329368012 -593063805 1441063297 -1743175206 302727231
        2128183466 1493817891 1475248127</internalNodes>
      <leafValues>
        -5.9538972377777100e-01 2.7787551283836365e-01</leafValues></_>
    <_>
      <internalNodes>
        0 -1 140755 -1428215701 657997829 -1811803356 -1266138665
        -360181597 -838287103 -1400206358 -1097307796</internalNodes>
      <leafValues>
        -4.6026280522346497e-01 3.8801676034927368e-01</leafValues></_>
    <_>
      <internalNodes>
        0 -1 6544 176532686 2060704388 -648965922 1807171766 134286062
        -231071463 824435320 1652576727</internalNodes>
      <leafValues>
        -5.8803182840347290e-01 2.9001110792160034e-01</leafValues></_></weakClassifiers></stage8>
</opencv_storage>
