<?xml version="1.0"?>
<opencv_storage>
<stage6>
  <maxWeakCount>8</maxWeakCount>
  <stageThreshold>-7.6510721445083618e-01</stageThreshold>
  <weakClassifiers>
    <_>
      <internalNodes>
        0 -1 7776 -1495896966 115235155 -485369906 1251618044 1136669536
        1974683815 -879470379 744627577</internalNodes>
      <leafValues>
        -6.5941101312637329e-01 4.9095344543457031e-01</leafValues></_>
    <_>
      <internalNodes>
        0 -1 166424 -1518354700 -1523218403 1898694905 -247166653
        8718384 -1551719800 220580344 -413713606</internalNodes>
      <leafValues>
        -4.2022606730461121e-01 3.7076595425605774e-01</leafValues></_>
    <_>
      <internalNodes>
        0 -1 77917 -3677746 -612420931 1192594600 -174600953 -1425348387
        -1922902404 -343687505 2141050015</internalNodes>
      <leafValues>
        -3.9984628558158875e-01 4.2725744843482971e-01</leafValues></_>
    <_>
      <internalNodes>
        0 -1 12583 -654325509 92093743 -1359200263 -92868633 -646190277
        364027903 -43664292 -135286406</internalNodes>
      <leafValues>
        -3.4554815292358398e-01 4.7910824418067932e-01</leafValues></_>
    <_>
      <internalNodes>
        0 -1 166462 1650645285 -587737836 -1860968450 630485367
        1331655610 1057587435 -1413161873 -4654347</internalNodes>
      <leafValues>
        -4.1879463195800781e-01 4.1251882910728455e-01</leafValues></_>
    <_>
      <internalNodes>
        0 -1 3169 1556075749 1878785918 2147413487 1928151037
        -1342246914 -315529 -268681990 -1258295681</internalNodes>
      <leafValues>
        -3.6217656731605530e-01 5.5366480350494385e-01</leafValues></_>
    <_>
      <internalNodes>
        0 -1 4812 -462072523 618590658 1225806672 -37364321 -977149840
        -1990098807 -1062053435 1307835828</internalNodes>
      <leafValues>
        -5.4292333126068115e-01 3.6163282394409180e-01</leafValues></_>
    <_>
      <internalNodes>
        0 -1 118937 735123377 838500349 1999599091 -639810407 683413454
        -1157866511 259161535 -574962383</internalNodes>
      <leafValues>
        -3.8219404220581055e-01 5.0119650363922119e-01</leafValues></_></weakClassifiers></stage6>
</opencv_storage>
