<?xml version="1.0"?>
<opencv_storage>
<stage1>
  <maxWeakCount>8</maxWeakCount>
  <stageThreshold>-1.0031039714813232e+00</stageThreshold>
  <weakClassifiers>
    <_>
      <internalNodes>
        0 -1 45879 -33570166 -75526660 623706895 893325069 -1128923218
        -47923316 222236639 218714249</internalNodes>
      <leafValues>
        -3.4586465358734131e-01 5.9746587276458740e-01</leafValues></_>
    <_>
      <internalNodes>
        0 -1 256 1989181383 -1439964177 1967610342 777669583 -609260443
        -572682578 814592885 -1999352843</internalNodes>
      <leafValues>
        -5.8937901258468628e-01 3.5437324643135071e-01</leafValues></_>
    <_>
      <internalNodes>
        0 -1 31872 1610607479 -147849414 -83952135 -9175065 2112978799
        -36602001 1441773476 -1425213582</internalNodes>
      <leafValues>
        -3.5061660408973694e-01 5.1592999696731567e-01</leafValues></_>
    <_>
      <internalNodes>
        0 -1 164475 -474497497 -2116239237 -799579117 1657234998
        2103699671 1923646415 1537708724 242570750</internalNodes>
      <leafValues>
        -4.9549612402915955e-01 4.0618687868118286e-01</leafValues></_>
    <_>
      <internalNodes>
        0 -1 5068 1375728383 1122136062 -1157796867 -289510418
        -436607555 -310542851 1039955452 -179865217</internalNodes>
      <leafValues>
        -3.9677876234054565e-01 4.9481609463691711e-01</leafValues></_>
    <_>
      <internalNodes>
        0 -1 1936 727605874 1173696565 -553584402 437058309 -309863297
        1352090781 -275915975 -1066510119</internalNodes>
      <leafValues>
        -5.5394017696380615e-01 3.6667609214782715e-01</leafValues></_>
    <_>
      <internalNodes>
        0 -1 5806 -741619976 2113781835 -243215904 2135947465
        -1058410262 1093075099 -1736386334 1498370267</internalNodes>
      <leafValues>
        -5.0891518592834473e-01 3.8960954546928406e-01</leafValues></_>
    <_>
      <internalNodes>
        0 -1 13073 -136900639 1962983623 -1929314070 -355231322
        1910242103 1636425737 -2140149186 -1548631004</internalNodes>
      <leafValues>
        -4.9302861094474792e-01 3.8881227374076843e-01</leafValues></_></weakClassifiers></stage1>
</opencv_storage>
