<?xml version="1.0"?>
<opencv_storage>
<stage22>
  <maxWeakCount>8</maxWeakCount>
  <stageThreshold>-5.3376698493957520e-01</stageThreshold>
  <weakClassifiers>
    <_>
      <internalNodes>
        0 -1 21 -1369280672 1861136126 -16864004 984321788 418674545
        -404291590 385769342 104323840</internalNodes>
      <leafValues>
        -4.5708581805229187e-01 5.1341521739959717e-01</leafValues></_>
    <_>
      <internalNodes>
        0 -1 25771 1346796339 -1869839085 -1191058411 403754901
        235389035 -1190477436 855900617 1487261664</internalNodes>
      <leafValues>
        -4.4591918587684631e-01 3.7668269872665405e-01</leafValues></_>
    <_>
      <internalNodes>
        0 -1 1157 1821343955 1900212225 -2012774125 134500754 1376276512
        1342324736 143181001 1682827874</internalNodes>
      <leafValues>
        -4.4948396086692810e-01 4.1214546561241150e-01</leafValues></_>
    <_>
      <internalNodes>
        0 -1 21425 -2029906731 -61791036 -805289981 -216297403 17150573
        -2126085472 1241942409 -1466822268</internalNodes>
      <leafValues>
        -4.5231541991233826e-01 3.8145393133163452e-01</leafValues></_>
    <_>
      <internalNodes>
        0 -1 26740 -1419946284 193757633 277105115 476287024 142668122
        251904010 1687822931 172513998</internalNodes>
      <leafValues>
        -6.2358760833740234e-01 2.8511247038841248e-01</leafValues></_>
    <_>
      <internalNodes>
        0 -1 1391 1427061423 1158382088 25366682 -919379828 -1974763214
        -352116727 -521575936 -940613883</internalNodes>
      <leafValues>
        -4.4503405690193176e-01 4.2363578081130981e-01</leafValues></_>
    <_>
      <internalNodes>
        0 -1 3231 -1064463018 -2128493293 1094713586 1386386499
        1762763300 1770033159 -2088642454 197538280</internalNodes>
      <leafValues>
        -5.5479311943054199e-01 3.6645239591598511e-01</leafValues></_>
    <_>
      <internalNodes>
        0 -1 7454 -1712893464 -1050738314 16783963 1306083413 -738108018
        -1147991927 269723651 1100996817</internalNodes>
      <leafValues>
        -5.3224849700927734e-01 3.9638286828994751e-01</leafValues></_></weakClassifiers></stage22>
</opencv_storage>
