<?xml version="1.0"?>
<opencv_storage>
<stage7>
  <maxWeakCount>7</maxWeakCount>
  <stageThreshold>-4.5957604050636292e-01</stageThreshold>
  <weakClassifiers>
    <_>
      <internalNodes>
        0 -1 1532 -2010766348 -1566125430 -519499776 839520650
        -1188975083 688570371 1074742026 287082364</internalNodes>
      <leafValues>
        -6.3589745759963989e-01 4.9696969985961914e-01</leafValues></_>
    <_>
      <internalNodes>
        0 -1 26895 -806379715 1055701563 -68542484 1073674239
        -1476395524 -1149894795 -1090691270 -713623559</internalNodes>
      <leafValues>
        -3.5726365447044373e-01 4.9367156624794006e-01</leafValues></_>
    <_>
      <internalNodes>
        0 -1 12257 1357062210 -772345493 1927380671 -877672991
        -1528158300 -274850080 1996383491 -940872305</internalNodes>
      <leafValues>
        -3.9977234601974487e-01 4.7078153491020203e-01</leafValues></_>
    <_>
      <internalNodes>
        0 -1 1351 -537395333 1090453502 -536973470 -813801601 -452985676
        566067199 -185180170 -840440073</internalNodes>
      <leafValues>
        -3.6881533265113831e-01 5.1326143741607666e-01</leafValues></_>
    <_>
      <internalNodes>
        0 -1 1583 1876338573 538073683 -2125344359 -1224566187
        -704527438 -1048543104 302504812 460704175</internalNodes>
      <leafValues>
        -4.6569764614105225e-01 4.2775517702102661e-01</leafValues></_>
    <_>
      <internalNodes>
        0 -1 27182 776940523 8204 115163 943767564 1695371805 1220674336
        461555970 745600747</internalNodes>
      <leafValues>
        -5.9999132156372070e-01 3.1715697050094604e-01</leafValues></_>
    <_>
      <internalNodes>
        0 -1 482 1624428615 -737001469 306645008 1080053771 159875102
        -2012805117 -1396100638 -707914422</internalNodes>
      <leafValues>
        -4.8649457097053528e-01 4.4288611412048340e-01</leafValues></_></weakClassifiers></stage7>
</opencv_storage>
