<?xml version="1.0"?>
<opencv_storage>
<stage23>
  <maxWeakCount>9</maxWeakCount>
  <stageThreshold>-7.5019365549087524e-01</stageThreshold>
  <weakClassifiers>
    <_>
      <internalNodes>
        0 -1 26891 784470136 1657863186 139510941 1024983299 669660200
        1344426185 -536671712 665874464</internalNodes>
      <leafValues>
        -5.3964191675186157e-01 4.8116067051887512e-01</leafValues></_>
    <_>
      <internalNodes>
        0 -1 883 -1308950982 1410388804 -2147448805 1929893140
        -666386326 -1744433079 -653989692 1232169379</internalNodes>
      <leafValues>
        -4.2248502373695374e-01 3.7386810779571533e-01</leafValues></_>
    <_>
      <internalNodes>
        0 -1 20185 -739667819 1692254364 1077003349 1045447004 949163449
        -592936831 1652623873 1017882999</internalNodes>
      <leafValues>
        -4.4637456536293030e-01 3.7801629304885864e-01</leafValues></_>
    <_>
      <internalNodes>
        0 -1 3400 1685022677 1803288343 2147401725 1571143671 -134907401
        -160071809 2130181011 -113549521</internalNodes>
      <leafValues>
        -3.5096487402915955e-01 5.0014233589172363e-01</leafValues></_>
    <_>
      <internalNodes>
        0 -1 0 386725820 -1273805625 22340736 -1739078768 -1530814423
        312544152 411146424 -407313869</internalNodes>
      <leafValues>
        -4.4585493206977844e-01 3.8356259465217590e-01</leafValues></_>
    <_>
      <internalNodes>
        0 -1 311 -361577215 -514060141 526595 1707474946 -2004630989
        -1626980350 60399801 699024353</internalNodes>
      <leafValues>
        -5.5251550674438477e-01 3.3442506194114685e-01</leafValues></_>
    <_>
      <internalNodes>
        0 -1 6448 1058713043 -1601732463 1342308887 -1315930095
        1799756003 1753252356 1388370369 -1377798939</internalNodes>
      <leafValues>
        -4.5284482836723328e-01 3.7259978055953979e-01</leafValues></_>
    <_>
      <internalNodes>
        0 -1 3231 1150604630 17149983 1360232671 897765563 -1987999188
        285247499 -2104994741 -1545383238</internalNodes>
      <leafValues>
        -4.5662128925323486e-01 3.9276868104934692e-01</leafValues></_>
    <_>
      <internalNodes>
        0 -1 4940 72073722 12832955 -1744587634 -410775505 -2013043649
        705167624 452987520 86125537</internalNodes>
      <leafValues>
        -6.1640459299087524e-01 3.0868402123451233e-01</leafValues></_></weakClassifiers></stage23>
</opencv_storage>
