<?xml version="1.0"?>
<opencv_storage>
<stage20>
  <maxWeakCount>9</maxWeakCount>
  <stageThreshold>-1.1140153408050537e+00</stageThreshold>
  <weakClassifiers>
    <_>
      <internalNodes>
        0 -1 481 644234352 815955838 -535801804 1102650383 -806912137
        -1510080785 1453186278 60222258</internalNodes>
      <leafValues>
        -3.6602452397346497e-01 5.2090185880661011e-01</leafValues></_>
    <_>
      <internalNodes>
        0 -1 19783 -1213724549 -954499854 -268752517 1071725969
        -1934962532 -1344280588 -1896086279 -1964352723</internalNodes>
      <leafValues>
        -2.9067084193229675e-01 5.0786191225051880e-01</leafValues></_>
    <_>
      <internalNodes>
        0 -1 1581 -136029063 939448253 -16777747 44629226 -554737675
        1572831230 -1207961643 2107097087</internalNodes>
      <leafValues>
        -3.9012467861175537e-01 4.1001605987548828e-01</leafValues></_>
    <_>
      <internalNodes>
        0 -1 9889 1960106239 -1863766547 2126507708 -1051900619
        -1976116013 -1477534035 -1062672454 -82370001</internalNodes>
      <leafValues>
        -3.0870011448860168e-01 5.2607077360153198e-01</leafValues></_>
    <_>
      <internalNodes>
        0 -1 4861 1825551613 310960656 -788409593 -792083776 -1853635774
        -1467481969 -2141093091 -2051733997</internalNodes>
      <leafValues>
        -4.4365864992141724e-01 4.0594044327735901e-01</leafValues></_>
    <_>
      <internalNodes>
        0 -1 1950 -292380123 1644544418 1494550675 310870273 1346439179
        -1743649655 -1156545735 1712773317</internalNodes>
      <leafValues>
        -5.7157623767852783e-01 3.0938354134559631e-01</leafValues></_>
    <_>
      <internalNodes>
        0 -1 22257 -1575322723 1229014036 353718557 1606897668
        -2135779696 -1983084372 17439896 -2001775567</internalNodes>
      <leafValues>
        -4.4914513826370239e-01 4.1856935620307922e-01</leafValues></_>
    <_>
      <internalNodes>
        0 -1 27200 1158590042 -259550967 -1828355706 496488453
        -1962882473 1275757666 1395820183 -1276878294</internalNodes>
      <leafValues>
        -4.4418141245841980e-01 4.1886436939239502e-01</leafValues></_>
    <_>
      <internalNodes>
        0 -1 26724 -1304289349 664719973 956367127 -808160852 41965773
        1619693700 764000295 1909161375</internalNodes>
      <leafValues>
        -4.8553436994552612e-01 3.9016854763031006e-01</leafValues></_></weakClassifiers></stage20>
</opencv_storage>
