<?xml version="1.0"?>
<opencv_storage>
<stage19>
  <maxWeakCount>8</maxWeakCount>
  <stageThreshold>-6.0479110479354858e-01</stageThreshold>
  <weakClassifiers>
    <_>
      <internalNodes>
        0 -1 1 749223696 -1332604462 -2097133518 -2036317685 -1591803862
        1811939482 1497366853 897189980</internalNodes>
      <leafValues>
        -6.6763848066329956e-01 4.7899872064590454e-01</leafValues></_>
    <_>
      <internalNodes>
        0 -1 1501 1532348406 -897400781 -2137898773 -1382756015
        1241602117 -1702336128 -619373366 1591223111</internalNodes>
      <leafValues>
        -4.2424619197845459e-01 3.7356746196746826e-01</leafValues></_>
    <_>
      <internalNodes>
        0 -1 1603 1264432624 -737885819 -2122080173 496272002 1476928371
        -1251829629 -2138330390 1160473510</internalNodes>
      <leafValues>
        -4.5404118299484253e-01 3.7510299682617188e-01</leafValues></_>
    <_>
      <internalNodes>
        0 -1 14399 -631572332 -918761424 1179224155 -1671331683
        1477223850 -1979006973 1283678433 -1156955121</internalNodes>
      <leafValues>
        -4.1989788413047791e-01 3.9120021462440491e-01</leafValues></_>
    <_>
      <internalNodes>
        0 -1 25750 -1999424096 -515538215 9564252 144637982 1881278763
        -787545078 563782079 -529732784</internalNodes>
      <leafValues>
        -5.5285078287124634e-01 3.1171679496765137e-01</leafValues></_>
    <_>
      <internalNodes>
        0 -1 27216 -1919454456 207606165 -1055860325 -947378288
        328436509 1489043603 -243146068 1565839368</internalNodes>
      <leafValues>
        -6.0576337575912476e-01 2.7118191123008728e-01</leafValues></_>
    <_>
      <internalNodes>
        0 -1 23592 -678022599 142922009 428671706 622628875 -2146926056
        463536528 -83358822 -1633929047</internalNodes>
      <leafValues>
        -4.4397479295730591e-01 4.1796442866325378e-01</leafValues></_>
    <_>
      <internalNodes>
        0 -1 1095 -119631913 -550973844 -268435593 1622076650 -919547053
        -679742235 -1218488969 -889227941</internalNodes>
      <leafValues>
        -3.8984310626983643e-01 4.9364984035491943e-01</leafValues></_></weakClassifiers></stage19>
</opencv_storage>
